,PC1,PC2,PC3,PC4,PC5,PC6,PC7,PC8,PC9,PC10,PC11,PC12,PC13,PC14,PC15,PC16,PC17,PC18,PC19,PC20,PC21,PC22,PC23,PC24,PC25,PC26,PC27,PC28,PC29,PC30,PC31,PC32,PC33,PC34,PC35,PC36,PC37,PC38,PC39,PC40,PC41,PC42,PC43,PC44,PC45,PC46,PC47,PC48,PC49,PC50
AAACATACAACCAC-1,-0.9640631039159534,2.558046922481071,0.8149290349534892,2.8423446451012944,0.03420791312224088,0.04127952952577662,-0.016642433274615467,0.20620273537040387,0.05228807355237873,0.017648813646559295,0.5439732162610333,-0.9606333038670287,0.5046007539433692,-0.4899135727992141,0.33581592414308925,0.5027487329888095,-0.34788696175271216,1.5311496638600597,0.9867429846388208,-0.7248292337550177,0.1737781781991007,0.44809671010829255,-0.5152507172614431,0.13412680545319527,0.6195028936437479,0.6432614665468075,-0.11096937218038705,-0.5034303335722496,-0.4894465586865459,-0.2976368360289863,-0.12509282874904318,0.7828722321347007,0.1378288134062675,0.09915867763176595,0.4359995559199646,-0.7044229218842089,-2.68477875070776,-0.46423359541661785,-0.9062050402570617,-0.7375156460547249,-0.1819595131638501,0.8280998964241404,-0.3783852990700396,1.094182141901979,-0.015621820113658438,-0.1601250595931847,-1.1138950658689684,0.32173783483181456,1.1031087038421736,0.010707152322383314
AAACATTGAGCTAC-1,-0.131150420633396,1.3325941521131086,-8.208489221166015,-4.366258678871294,-1.0401066509890415,0.23464903721308678,0.14287076501577303,0.2349021882726169,-0.7726520660100615,0.4954423221463343,1.2065549120018244,0.8907865504712992,0.12708986520419552,-0.06057706886198927,-0.8363274829674467,0.030061339770077553,0.8545409958573085,0.03287349851292287,-1.9012632465796169,2.217498340382982,0.33033766418835053,0.024209956315412673,4.101982071040593,-0.7310425402871085,0.052068194815661606,-3.3632957009116247,2.416029467532824,0.0075077320524116475,0.5701846914891368,-0.9452125488460132,-0.09400626042546265,1.868629331010792,0.6852877818792611,1.7202302986744678,-0.2954656229076545,1.527501970395283,-3.4975036186342665,-1.9852732176169412,-0.25375798832501406,0.6948207786547694,2.7601376849799486,0.42120517739214675,0.3521363056343597,0.1414423771133828,0.7164520548495878,1.2204167641720371,-0.7085289861376414,0.4118255851693148,0.17445684494244268,1.1102686102555464
AAACATTGATCAGC-1,-0.6901338464713022,1.392094424174851,-0.4014975319966539,2.889004555012516,0.09389872404923755,0.051382471916844884,-0.06404459828966479,-0.48700634886003985,0.14195921392805794,-0.18035925589755922,0.41857974972712075,-0.5983962075344416,0.2738119507975914,-0.15033250479480945,0.010553612936257284,0.43971370248579517,-0.557800834978032,-1.3877348699584795,-0.5785159026386478,-0.4098632063727978,1.2890829457523294,-0.3487670250528525,0.23256923120879014,-0.44276415318013324,-0.21998959729948933,-2.1048165105242087,0.06470072857597725,0.7597726308419159,-0.8373377094889909,0.31871142983346357,1.271617495296359,-0.2325590578673827,-0.24220977912338623,0.8891873982347673,-0.2828632370839389,0.03465507456157073,-0.49572266316417163,0.5351988117898109,-2.270813029453142,-0.6758346124682562,-0.6107226928666661,-0.20034463552113857,0.6485763841615697,0.37266831703672326,-1.0143352127493714,-1.2348452204903233,0.6308878205151381,-0.2798863351545001,0.7949195591739096,-0.9117895825260451
AAACCGTGCTTCCG-1,0.09256240250279711,-6.223090451311293,2.1348523221028604,-1.7424126431078752,-1.2072150971280349,-0.3604614497503568,-0.1022183971034708,0.30542237288183366,0.01406836898064916,0.5266475139927229,-1.0059501026304916,0.8193016439207965,0.5650509701604693,1.4207363008867286,1.4321834468626653,0.23015741481523344,-0.9849270344810022,0.6274072020050585,-0.4807894832563762,0.43483071262123724,1.9895647751990824,1.1352689095730542,-0.6631158563390609,1.5401983018830374,-0.1780945985936255,-0.04300587971254663,-0.3879537804361008,0.6609987825061958,0.40599025936617134,0.82263430424186,-0.0640461679224383,-0.26366106571538694,-0.03560456623927602,-0.5200177132170458,0.6494776482667762,-0.6080550455347102,-0.11167076335202236,1.9216822451686177,-0.37727174693790183,0.25480596044610193,1.1972763185350181,-0.7912863350929181,1.5662096823824285,0.7232570578760296,1.0231572482511915,-1.0425147027311636,-0.6459972363695017,-0.9585371810587884,0.8528716616927988,1.4894231822300072
AAACCGTGTATGCG-1,-1.149332929181195,7.079701466311964,7.53854802998201,-5.999182217452864,-0.08886641574090115,0.21291638426566395,0.7765208542094438,0.03992761752892919,-0.22672105308657697,0.24412106041161508,-1.6449793980980063,0.5418747917110946,-2.0372907232556794,2.029664881197514,-1.6602290136213862,3.1436321477838547,-1.103943196219684,-0.34342409346137404,1.522135513534475,-1.5969034945736,-2.5317027314638807,-0.12849385881924322,-0.7973646348166225,-2.105368226675683,1.1691046581183535,-0.5274614545510355,0.6461405280019963,0.7957869955675057,-0.01598043615835243,0.04864071859403404,-0.10295892568367326,-0.02798531114453473,1.8393596643554626,-0.5606591462343548,-1.8278240102172567,1.320962354359459,2.7982021913812773,1.8015203067974415,-1.3510689762280947,0.3454239977737263,2.14952825055534,-1.244130161751898,-0.2446112673657192,3.006586830127224,0.061268324469844926,1.3407345222218285,1.032390680396546,-2.0269897204634293,-2.0268736028824574,-0.373588097224375
AAACGCACTGGTAC-1,-1.0071441419572746,0.8890347048977765,-1.0964978245401675,2.9163410395152036,-0.02983595278672499,0.04767047220797542,0.029649008044469148,0.21011114285677607,-0.43978749619959406,-0.34429633496082734,1.7977675237141448,0.6453000447408093,-0.7442238012324003,0.7772307087280457,0.4113431064553221,0.23014786901740192,0.2166564284017259,0.20534523710173422,0.8725637620111533,-0.07341882263979832,-0.3787963190324551,0.1311844131287332,0.15039282974037835,0.545461233136231,0.3191887426943341,0.06811619451679946,-1.6911835044365868,0.4992003744089427,3.0106538001762013,-0.17290185922622447,-0.5769958221976579,-1.090599918001391,-0.057339209616102366,0.7255811679705846,0.07462069804150195,0.9470381038319161,0.477296230494005,-0.5421143111016936,-0.049290950955279744,-0.4600835702936777,-0.5185316754254611,-1.1072981083122775,2.0597116529171053,0.35834912124748036,-0.42544764182645056,-0.26866918742913287,0.5983510821398534,-0.6305519772330921,0.028946072711743986,-0.08945841905314095
AAACGCTGACCAGT-1,-1.1014071640323473,3.63282781363849,1.9949387302139632,1.411861840815073,-0.0771763812651963,0.12574210372717437,0.14496826686033837,0.057186075486659965,0.12433897723314054,-0.32830955137871287,0.7418913107658232,-0.40474164800231405,2.4849582796098777,-0.7699524980670952,0.801854451897327,-0.03026603712389253,0.5797639976616914,-0.09370130442819594,0.39800677477206653,0.6611878292378182,-1.065522571103896,0.136591413925767,1.7023491922490421,0.21157628706942605,0.6590620800200494,-0.19807481886953945,-0.13604396214017728,0.32184385044882124,0.061743813929207414,-0.45591686097321255,-0.6112284623651083,0.3295582611096932,-0.42810851901298075,-0.9663403868762457,0.24704609573503117,0.3669602020709137,1.0086844182137022,0.3763747594964296,0.9399440077438567,2.2466953286716183,-0.25280243007451497,-0.16430269390258284,0.5674369505296705,-0.2616101708375259,-0.6378307700735975,-0.812742313341896,-0.10401439688845565,-0.6053300352635199,1.4655054516113755,-1.9863363836653092
AAACGCTGGTTCTT-1,-1.0131237104551063,3.3571849221748216,1.2930792216641716,2.49696570207134,-0.004837119282851583,-0.08623185065548425,-0.6462058694927076,0.21770352886560213,-0.040512819417567736,0.5506072812163669,1.827252265174972,-1.5995239550233085,0.8705885031483476,0.04089618180766988,0.7548718246729874,0.02596730506404582,-0.3003288451921936,-0.574295977064979,1.0359820693567228,-0.12465243927325857,1.1439334781287647,0.5598188932790491,-1.6759001748175144,1.0288997959964499,-0.3410656774164722,-0.10720029088159327,0.3885284580883617,0.18136183282832152,-0.4138339215189669,-0.6750025553494297,1.4220924956046164,1.8279407325562123,1.2228011098159806,0.5701472065295241,0.7481194301735337,-0.4569916385040095,1.168697670371614,-1.1798824313787328,-0.15247927790073856,-1.1901980909964847,0.37181445097730653,-0.9411374179653119,-1.9559613344879507,0.27350849940045485,-1.746235233163691,-1.1152979217176429,-0.6027302158027072,-0.0611625346793524,0.34375165292828175,1.7808841076435438
AAACGCTGTAGCCA-1,-0.9707426420633429,2.8347610860068526,-2.7529926416007253,1.0077537752112424,-0.0854641042810289,0.13745344377324012,-0.06634635435819246,0.00792429997547519,0.2248049401539581,-0.03312566029913323,1.6035806050269898,-1.3935770888941137,0.9009500399505327,-0.45725923870962004,3.576470962976595,-0.041860060255736964,-0.24685938706370059,1.6297392904558956,1.9889147035023726,-1.7324679787793476,-0.8663173823061476,0.4134618325843407,0.38423836129285416,3.129453744281398,-1.3716610425254685,-2.179877158879071,-2.867983111085373,-0.17725920279635926,-2.6503764996902555,0.24321669586881603,-2.4152446531829033,-0.3356410826224312,0.8946786610947484,-1.5785139783446933,-0.2332588016259452,0.980936486738223,-1.1969422791832645,-2.474852306716244,-9.564515864034364,0.6542494247415397,-1.4653911590476953,6.695910569531567,-1.6069212637472385,1.5014387756716727,1.549853267593649,0.8229083987770047,-1.0355482246737857,-0.8091238200073678,0.7768409782262548,0.2074284543739604
AAACGCTGTTTCTG-1,0.393345057029756,-3.7818620904574027,1.6246354144814177,0.08652450225794128,-2.4875844122348747,-0.991298499684473,0.03693634713565775,0.2952167728180503,0.058196910048557704,0.6666577529004394,-2.022431992774697,0.8523652737384162,-0.8027228657686442,1.70976393369763,0.35412530480992266,2.416743024093295,-3.036485397678641,0.6958628360165889,1.522559915023678,0.08990569331005438,1.8390442845660304,1.3199693057983537,-1.7087018994405496,0.34068874340982164,0.3359973728993546,-0.06110924794527861,-0.2911697734352286,2.1378307792348026,1.175751842156882,-1.3854635302673226,2.166740703558715,1.2218102554957007,1.4817691864310623,1.314204260193144,0.10920427740677184,-0.2003653374098971,0.9179642937719432,-0.6135423814543428,2.465443425911011,0.5831593931780168,-1.3436197790413689,0.15069157862271287,-0.5996675541152114,0.41357967822474184,-2.1083100567572735,0.6373107842888674,-0.9999744390727975,2.2031750877888885,1.681145003613297,-0.07355441342420599
AAACTTGAAAAACG-1,-0.35194185710421827,1.095781561197377,-9.35078220924812,-3.555946550577611,-0.1772719239249897,0.7225407678371862,0.16810001568350796,-0.43064909236779014,-0.0814582740959654,-0.26256270271859405,1.1955139198688023,3.219880992012354,0.4273459155781838,-1.2489303408648438,-2.6280871618699146,1.8674168288899364,1.3950512455382893,3.2544273275101774,1.6796658813852134,1.8126641074372376,0.4733774616719367,1.4340943448822374,-0.5150275349144999,-0.0641913172421491,1.5720318677112166,-0.5184664723268927,3.326083873573377,1.1846155678371157,-0.06005305298541197,-0.9111054787311784,0.6398741499145173,-1.177657685499801,-1.2484895579585775,2.130379909948918,0.5268371357734691,1.0131662499025818,-0.11664473388919243,-1.608860125861193,-0.4235225812363853,2.2474040673532047,0.4645143786989646,-1.2815480437361444,-1.5284634917472675,0.35115482188085767,0.46400910293404274,-0.7477202620350885,-1.4448049049977492,-0.38046969826006255,-1.3380293319396832,-0.17560663913335595
AAACTTGATCCAGA-1,-0.9648597101174976,1.1333459536399488,-0.8995999830249511,3.3465152078704854,0.02067617772111545,0.11106021298520738,0.09910871113032713,0.10223629325411954,0.1532765805067565,-0.21008577148469976,0.32424546638525337,0.2957842492369516,-0.3353686355990766,0.360187379951501,-1.6582685787338707,1.0683830944693484,0.11915696100063258,1.0196448492850296,-1.2336341308058216,0.7623562006899687,-0.49668273621910725,1.1147907402947923,-1.126774751422886,0.36950858027050915,-2.623383406088592,3.4361798492587345,1.7292440542029035,-2.521117458649875,1.4159351888889875,-1.6298635234766619,-0.3224363228559078,-0.8707329739972965,-0.31445732521866593,0.16184931023276397,-0.5027583395947786,0.5114334776376719,0.4641337895442821,0.09667322534938161,-1.0639814173000282,1.1735617905071556,-0.47331156710057626,-0.7860784921139605,0.1596998370844216,-0.08266975566332999,-0.7740091500613228,0.4452972816328954,0.2907697124756459,-0.553020944794703,0.8940767421350531,-1.3833781486714092
AAAGAGACGAGATA-1,-0.9778473094301898,0.24577331229355953,0.4428412685545703,3.0512176478999447,0.05539664848095205,-0.09365900176089836,-0.10305089906071675,0.12383343986203695,-0.15547442400584813,0.3945503893715121,-1.1972641380188263,0.8965653828989737,-0.9950589167044671,1.5966648052195573,-0.12363145133607052,0.6944631504764051,-0.6676151888261785,-0.295932081341542,-0.11989246773554006,-0.2751585171875184,-0.19109313391674765,0.05904365263782281,0.2889316796694652,0.0016221967972075424,0.25163395420477164,0.17300516005141114,0.2981417815648551,0.613502261797495,0.5072743999698183,-0.49393554657478883,0.37044960591600995,1.1828957415296188,-0.27864922009085646,0.3654050573420976,0.06202225492043342,-0.38495331983994374,-0.14868909314520598,-0.32495118766806724,-0.4730991934347406,-0.35907421154255764,0.4432720760817508,-0.7035365029441479,-0.6283561662204022,-0.29723919374468794,-0.8542481641661726,-0.4342069332169388,0.2084184436490933,0.5271057372172837,0.5467747660064104,-0.7278848933530706
AAAGAGACGCGAGA-1,0.366641914474347,-7.610899166718091,2.5064052574745586,-1.828904653735289,0.3750867296602037,0.1336631847616453,-0.24234716438502074,0.7403073020695837,0.022600753654510933,-0.15827789718409052,-0.2261272809754333,0.21274275593701314,1.3678352203425959,-0.47428571564703426,0.05192315494479963,-0.67436580812737,-0.4535473810825346,-0.022797985574065125,0.0029793028219977265,-0.7269727596768267,-1.0890098726003405,-0.827467303383197,0.3026898211522695,0.19231588296126167,-0.0465941437687942,0.08289897779403463,-0.7558462310917413,-0.17651226302354578,-1.0480995521123553,0.48973115186013144,-0.32092645247804225,0.016557405544769026,0.9247596332150896,0.6291205404438838,1.204899245390454,-0.8059992216188266,0.6819607321680649,-0.47071823242277955,0.1766681703131349,-0.30225248431160756,-0.3276770439278905,1.3348554897888214,0.37231376966534796,-0.6566237928216424,0.5049930298233041,-0.23301524786324423,0.31583286139828376,-0.4528191234753777,-0.8499712687478219,-0.0712238541503264
AAAGAGACGGACTT-1,-1.0727035848234716,2.7702210780573218,1.2806453394999773,3.0529516231606175,-0.020461115500796108,0.025920403592443048,0.02601345888676891,0.16992657402457206,-0.08036243922813252,-0.11804501680491937,1.6649773478249754,-0.2762448238044499,1.8331591308829291,-0.8302541323241891,1.0296382953283807,-0.61370255171179,0.4939706536276436,0.4749776994082332,-0.6788102301757465,0.1328969765777097,1.7833346003289527,0.07019664339815018,0.04754645055962986,0.7356665108095758,1.734437231087909,-0.6370261260175627,-0.10913555144820974,-0.9455451366075733,-0.3000580771606448,0.8517555223156945,-0.3206407680415745,0.29869859043245695,-0.3301743423441413,0.25870365018352814,-0.46409473922808187,0.21486133024750387,0.37705378762062025,-0.13331946727320973,-0.44567384196864634,0.06368174437950846,-0.43186307769868165,-0.030680714941190096,-0.005312387409437985,0.1856218654984129,1.2800141681269022,0.5429458174547086,-0.10935766749581873,-0.10981269844150154,-1.5046005095616166,-0.2827375654979901
AAAGAGACGGCATT-1,-0.9370087288833411,0.5387669385840366,-0.8707334112316497,3.555971532433177,0.02395950377562242,-0.05872244055154635,-0.06782168388888962,-0.05994956393509934,0.035220177104332964,0.2066718964145274,-0.5421939888029635,0.07052339074270281,-0.3222329794826689,0.5742342240082743,-0.7465090634825453,0.21799216484826275,0.2166577318193324,0.03979815764361524,0.11509370248905265,-0.2264411879375966,-1.1771704214929246,0.10562935322869563,-0.27953355709566075,-0.08229481441119407,-0.6875314667269429,0.43032550761231747,-0.5165160112597147,0.34706667116155104,-0.9893685081365693,-0.5113700922119617,0.2754917971081151,0.13796865551834378,-0.028721960518009695,-0.0464728635163721,-0.03539728729804925,-0.603882938719226,-0.11144582631869066,-0.32141638562936803,-0.4017536002817681,0.4230243353767963,-0.14209196161121085,-0.17558459424079276,0.7174341900040553,-0.24090263412284554,-0.09590694991752519,0.8980431428862559,-0.3918591254383701,0.10945521741423,-0.19642524499824768,-0.3678152421282182
AAAGATCTGGGCAA-1,0.6453062800103953,-6.153476168979335,2.6423761628469786,-0.11093370063089576,-0.2034423056181012,0.7385974943377457,-0.4850160517879184,-0.2780739826364619,-0.9611947770468511,0.07305544153634903,0.05116105691053509,-0.8642113317309541,1.0480671006169524,-0.9852596617518443,-1.0985340853554395,-0.12552689932679134,-1.027673143534496,0.5013871723713534,1.2529975812130991,0.018438416629805637,-0.9158847718001841,-1.4746378008730083,-0.367582439563508,-0.6575488320794414,0.7958991815879112,0.4114998168242385,0.1763104912732108,0.017960663667184656,0.9461703917819013,-0.7979994765111214,0.1283052154420005,0.1712979974061366,0.0038358918953194793,0.2984100715288326,0.24764914233052157,-0.8003330329257163,-0.3582098135071942,0.09350369558912444,0.32298854131948035,-0.2268941732218368,0.1667505158237732,0.4965396727847943,-0.049579389320799735,0.0722419256314435,-0.571474432053179,-0.5816148016641528,-0.5275136263234723,1.291541248546157,-0.2006318585667089,-0.22781337350169917
AAAGCAGAAGCCAT-1,-0.4795645987467693,4.18592813381656,2.663494429965104,3.3093093391150825,-0.5869874638415566,-0.9059190933478559,-0.42731908035816896,0.6294730951692341,-0.24982023374135517,0.2129527877139471,2.3869594746257183,-4.246885940307161,11.313363276084331,-5.427621966968916,2.94079112335835,-3.2345026381054165,-0.5501078024402368,-7.322720616917414,1.957939348919719,-3.535717476945249,5.953181209535149,6.206551700458055,-4.053387318668261,3.450945369326099,-7.312339283879568,-9.80065514517913,5.254844085380766,-3.538735608985884,-0.8027989304280958,-2.128032679125528,3.2607737591392087,1.5862248039792144,9.804844458343268,15.585646147664036,2.8997876618137743,9.139751736414272,9.782679790177166,3.5326662061048313,4.190716258626608,-3.4828784479177717,7.582361183939533,-18.316792570914437,-24.823904881349527,4.419126113202092,-17.546156438340248,-11.422948135960832,-6.003348687445755,-8.658147284078183,12.560353280105916,3.6428561601642873
AAAGCAGATATCGG-1,-0.2615060552187665,-7.594500841739728,3.671189830434801,-2.966152108908265,-0.2897749988356475,-0.040292338789796905,-0.038137883905263514,0.2895968249099153,0.25884936076015286,0.11361914366215978,-0.5162530296701929,0.8485340899667193,-0.2621175495098932,1.0731982892149041,0.7297666252851318,0.6474669586281803,-0.2861655424214654,0.5101933679650897,-0.6496291604890134,0.4253855853240336,2.476007427938778,0.9865757255607314,-0.8489056452618975,0.22413566655204512,-0.5008202942248439,-0.4595676964268927,0.7209463853556477,0.34932195151654605,0.024798972795254892,0.4915117115975532,0.08893290791472924,0.13435341425690542,0.20099537397231348,0.08844112975549745,0.1737913975029015,0.12114788076352012,0.9163257535604692,-1.3443992002184026,-0.410403568355134,-0.8470098217740789,-0.1927463438311693,-0.20319328981054785,0.43122775717168216,0.8953659583637534,0.060486157382237504,0.43337415997214124,-0.5657436382740892,0.22924846185051187,-0.8206537917719816,-1.3269862591452233
AAAGCCTGTATGCG-1,-0.9744906706379903,1.0067842348444471,0.00965383673829557,2.4288423639463796,0.027115559778064083,0.03984146829092232,-0.2853573511154889,0.04003280371750259,0.029081399887558146,-0.449386843915921,-1.3020506922044877,0.6951820898847679,-1.0222894139870258,-0.6960407262190296,-1.5120818869866979,1.0683028720284362,-0.08358275013664324,-0.2578990473401057,-0.49873356636593213,-0.8187231249990072,-0.3993110564519883,0.9930090510258317,0.01744468273920223,0.5539183793347792,-0.38934515573993983,-0.0775576619104629,0.4047145791954416,0.7669076669005723,0.6622997201594203,-0.18891398294794595,0.4068595350742337,-0.272868109489779,0.8194027672111197,1.0154161246520246,-0.711562230109557,1.1796974906154023,0.9826856398002316,0.07623915601991238,0.564891743891423,0.5491012092800309,0.2088725397607254,-1.021904991224417,-0.15547629161779025,-0.419494254164518,-0.4681304803525446,0.37855302743079955,0.7043470680140909,-0.22196982427650208,0.08424023747727638,0.8827945329738565
AAAGGCCTGTCTAG-1,-0.3721879062352537,1.5165813793694825,-4.840388807130326,-1.22978904833046,0.5037442217564195,0.2949923081116013,-0.45735326980230867,-0.731144986642803,-0.03804755148081701,-0.07365336520128571,-0.5148364838765532,0.6096242737366407,0.22488536863834435,-0.9046188674882415,-0.3489090628969904,-0.21348657177185132,0.458636714670154,-0.18679903845043114,-0.24470292778359942,-0.9059281179918423,2.0398032999059956,-0.5665799044045375,2.203300452566548,-0.4520773137996366,0.6755868141329895,-0.42390640135503665,1.1204425558320659,1.3054069325029065,-1.214912662536289,0.2605169618077383,0.33823642319619684,-0.3639153469074067,-1.0856317352771954,0.29833397104631565,0.5196535476505748,-2.8882213430340324,-1.707410365842072,-0.030938592203341664,0.14522530030665537,-2.0080636598681583,0.0019295797326894237,1.1614422301260197,-4.046518960948119,-0.313451303172981,-0.43799495504974334,0.4893190764192553,0.6678819186238029,-0.7289079080648868,-1.765690374094452,0.5170503275253917
AAAGTTTGATCACG-1,-1.2073350381764372,0.9495757387600302,-9.684523686974693,-3.4894297099788867,0.0695706285985479,-0.26294159587806665,-0.20278084253554773,-0.03877864782863896,-0.0037758548981801365,1.387546385045528,-1.0425039875011533,-1.7388119981143615,0.9556122141534443,1.5644855820821104,3.083454879141659,-4.606535877028742,-1.2018816914908665,5.12495618337352,-1.8340764434576975,-6.047021105401875,1.7644818608179857,-0.7136351709451958,-0.6974133445334493,-1.1430173604795004,3.5636528672910472,1.403035896813973,-3.8993134903631343,4.962488052503807,-4.546858435215982,0.531788591724746,4.148886203159694,3.7442011932465777,-4.818042595802023,-2.773049045420664,5.528823066251088,1.1907633861310998,-16.560016980024045,6.5196954214863405,-8.230024567055041,-8.22034490070099,0.2706362474153561,-3.160637072819694,-8.182013499575355,-0.525202651634483,2.5200352991797064,0.8731524687426617,-4.927773732707525,-2.9078139202450477,5.937037440456029,4.1383176908951445
AAAGTTTGGGGTGA-1,-0.27374746641734726,2.313154113346668,-8.923766793344495,-3.373845695365719,-1.029814003321282,-1.196442500041207,1.2400219874127347,0.3951314693740325,-0.7475971717813126,-0.3663632294390171,0.9608751694465218,0.20252777913076464,0.34400129851114425,0.3034206448126689,-0.7369541121219043,1.7636773636190377,0.9299347935063109,1.2254078229174525,-0.28999752201378787,0.6136627554378216,0.38527625908151275,-1.0132246101901974,2.728196538536684,-0.3572923061273603,0.5683260065146226,-0.6836618145033801,2.1361225295034973,0.15920579544367353,-0.8200836105734969,-0.5417422316290681,2.395618808828378,-2.838286913258051,1.3332581191481812,4.431700469463086,-0.549640073482502,0.19485939303095134,0.6141613216743312,-1.0905141343071298,-0.4762120019970374,-2.406072719909859,-1.847175535589009,-1.3021824738314143,0.9255793728527539,0.2599972840618522,-2.731490330277449,2.041455591434795,2.3997172963333813,0.23585148131299571,0.7179394066627951,-0.11661430043473137
AAAGTTTGTAGAGA-1,-0.7206300290183614,-0.40513312539419655,-0.627788702736094,3.489383931677325,0.25596283869821546,-0.3792141283599757,-0.6726255111103128,0.07806187879949199,0.22271443646240605,0.10915237665968708,0.55037167701985,-0.5344117007327873,-1.4720237817023054,0.6190156327301983,-1.2012385977405122,0.7720175588222308,-0.4494626457264132,0.22836105780716365,-0.8584049223261192,-0.6551860450456863,-1.1110524073453734,-1.093721324790047,1.4593758719745766,-0.930586779411044,1.4910393814344727,1.0186473686026836,-0.8784655522707415,0.38431419230535385,-1.1185347318878651,-1.6590633445589937,0.1392492782706694,0.6742034122410943,1.788725666874571,0.4341265604945585,-0.7107828491353304,-0.5310120999571453,-0.7236299097158971,1.0031971816169625,-1.2349589216829508,1.2059355807520222,-2.075121386886466,1.6257643537876492,3.4135758296897065,-0.21908334110652558,-2.0449097544465653,-2.0114578074052365,0.6704415529985676,-0.9196069623077203,1.4819288988893062,2.061353502066932
AAAGTTTGTAGCGT-1,-0.44058599010466737,-8.390351423580366,3.9645806903154024,-1.9868823800743447,-0.16657013829208983,-0.10871932877092413,0.25010046538969893,0.6921125468908647,0.5715115052185437,-0.8944384248395214,1.2249502885498098,-2.713188722089064,1.4690190212489986,-2.9297894800656357,-1.2812858394606106,-1.8558024512876257,1.4869085494094494,1.4256374410565513,0.027252796310387614,1.1773985178947066,-1.7181415125613961,-3.15009432909694,0.11459780634113079,-1.1975093840408435,1.7994428577263055,0.5587439174933877,-0.7228162331052049,0.7441095861150883,0.17580197220987887,1.0448602165097631,1.6174205561666022,1.0679101258180128,1.1511251765362354,0.020608896017656947,-0.8110957310037066,0.36105900062411056,1.4044571847799021,-1.3839399862243578,-0.5066390670374972,-0.5536964286233473,-2.6661512523928574,2.05695861412234,-0.9150268296729479,-2.297829464772694,-2.0539466585380763,-0.8899710371716244,0.6455230854514148,1.3692244024720441,0.5515936223085813,-0.4005914487854099
AAATCAACAATGCC-1,-0.7173990813286472,0.9219137985011199,-7.533736509644287,-3.057274298124436,0.08406985473346949,0.4964948939036637,0.6562901791963398,0.00506381812486336,0.46125760119829295,0.029776561710867844,-1.2668541913190063,0.10342806337608375,-0.30116162474412467,-0.045727099585484765,-0.5335650418517568,-1.387786935485234,0.6642600097205422,2.6585505710223067,0.14756924488883383,-0.6997684832590808,-0.23512963080427696,-0.0807172900459297,-1.358361511222646,-0.42234928941378325,-2.309885541130813,2.9942521592506863,-0.24741537577622474,2.0841739598691533,0.9287094136388827,-2.242465902845286,-1.1727795669396446,0.2183207907870756,0.5565105505744172,0.7854476825871436,1.3382382306609426,-0.322582165559238,-0.3259696543636258,0.18628528614751338,1.7944401895196045,-1.5757909978430256,1.1579739766459016,-0.47443444140146934,1.0702786292947712,-0.5372083253945676,-0.04437834661580459,-0.433132648510571,-1.2230389551600174,2.1248467234925497,-0.7496055519907491,-0.17843048352594404
AAATCAACACCAGT-1,-0.9063817803030487,1.260303581015997,-0.31968133621848127,2.913303198796791,0.07783008171879642,0.1864937624809534,0.15962601601389204,1.2674215512103872,-0.008066853000196578,-0.3398342972674317,-1.052981960301374,0.021522754259306914,-0.8963793573252238,1.7234066438293394,-3.9822686675589742,0.7002020157986591,-0.08945715513063264,0.6637498495027132,-2.9293748190215543,1.7528466967004923,0.4889586494004451,-2.4920619457445414,-0.7968740349127397,-3.4628837477226346,-0.1385434237955206,0.6026905453227979,0.10494289742181062,-3.2962063544325058,3.547416669035513,-3.3280994558170183,-2.618398298117695,5.268247772471274,3.7828640155163518,-7.442090723930554,-2.3677177416802926,2.2440640990578635,0.6864294434436644,3.159871036175645,3.055619518390433,-4.44376017705765,1.7708134706768177,-2.7103616758287945,0.6495283246597691,7.2165762417558454,-7.68087955306753,5.7052509305693375,-1.5257195490002022,-5.481428928557042,1.5773838560434772,7.9862232094803804
AAATCAACCAGGAG-1,-0.9789231158705556,0.7008135315088964,0.11167740802646972,2.9096362297627874,-0.13755135869573887,-0.05791087999576434,-0.001975589023015284,0.04839833513711794,-0.25970339349360055,-0.12830840629546075,-0.014677387493726698,-0.5071054046809158,0.27237294132833145,-0.34608541217450994,-0.26035152081695445,0.6810881205601033,0.06520210315454976,0.7618905715049427,-0.24355511681552136,0.01503084926129103,-0.06710037955425127,-0.8375455430624759,0.36408671421619077,-0.30797314360679295,-0.07872374409523869,0.018541117113506256,-0.28909940590851874,0.12073693193631693,-0.983479741453898,0.9309238199473653,0.1895367027074935,0.05037514768537232,-0.3334325193752258,0.1654984900571604,-0.2873674187471199,0.15276847076879563,1.240130087564298,0.29992027044317715,0.5530716753484223,0.9527284587939451,0.27584646862807694,-0.053011762628943415,1.3507863856371292,-0.20432658545881752,-0.29406594818851206,-1.274427648904852,-0.2760315799872586,-0.40414041537475676,-0.1480858792136685,-0.1641354102933179
AAATCAACCCTATT-1,3.9825050748178144,-3.3597929776810593,1.5368973927958405,-1.4998614024012356,0.9784142833511833,4.219841923461346,0.7336415797656055,-1.8020762860877448,-2.413053016170067,4.462911472625188,-1.2765137905245312,3.7244676978569706,-0.7176866512694601,3.409358471220008,1.3675097019472167,2.3220804436378053,0.5052951786696607,0.5347073499815935,-1.4240774485256322,0.06488202666522214,3.7369496710569514,3.6999496424521494,-0.5399858802463939,-0.05385679582230138,-0.30434611964316294,-1.34877133208351,0.31069699040347004,0.24176122995146612,-0.0918187687401103,0.3279782635768588,-0.3630512620643127,0.16900836139228784,-0.5226867645180933,-0.7910873585232912,-1.3828686592391768,0.9678401401952769,-0.9326013947364089,-2.0224690758178303,0.2648622805751579,-0.2975731937148223,1.0267731307518457,0.2732747125848587,-1.0150209127097596,-0.29468752117679575,-1.288843264817169,-0.02599229565738398,0.3765907139486974,1.3255855885556294,-1.8120199434006925,-1.4014325954344198
AAATCAACGGAAGC-1,-0.6953859597118959,1.1746372690770084,-0.5416735809958914,3.2895377968990727,0.3075602656634081,0.44252945421281936,0.2538826397231213,-0.10305874072195674,0.5704598121360605,0.26979538854490526,-1.0319147960312227,-1.561916421803412,-1.4156164865676055,1.3585054809951613,-0.9670638003256886,0.2873982322606883,-2.3357927825986406,-0.6295763887209936,-0.769928870699309,-0.10485424116743194,-0.9601677190552368,-3.1049175550453763,0.023744141406547403,1.8347098915357067,-0.5703313433318367,0.6880936880346998,0.4105767812302562,0.5872895540219158,0.39781889687754535,0.16002575656844573,0.13791100064955236,-2.5346851583292693,0.6455688610168179,-0.9743301399387915,3.6901437946778537,-0.25469767902487545,-1.1776605908865054,-0.9015739826147091,-0.473486822160052,1.928444216276671,-0.12443473711587244,-2.8022405580116097,0.30327083361635465,-0.33722907288367326,-0.1366694094401929,2.8790339480280815,-2.0048363736258867,1.3201746963684864,-2.211597646693418,0.4694687036776557
AAATCAACTCGCAA-1,-1.001099429498245,0.7689170831519223,-0.07249876324013427,3.649055278602024,-0.01416146757098899,-0.1064446603265784,-0.015601190224169212,-0.11229819828929336,-0.03396511505147723,-0.023220940339843926,-0.2976822840146599,0.7861986495278419,-0.5470250928559497,0.11452349412274604,0.1554429436189287,0.7518228898734206,-0.15173299057179554,0.95293793411944,0.2603663555715904,0.607104722603267,-0.19241841756573555,0.3392729397007848,0.310818278973503,-0.5265408576183872,-0.650934199581404,0.13257430536063336,0.09404679548051645,-0.42098856932501133,0.18126168343047097,-1.1001357561044018,1.4978577694049684,-0.827170114953367,0.11335886653526278,-0.4654772860856409,-1.3865781657243044,-0.8507541010894879,-0.56484076894962,-1.2592103529995844,1.1257192183506703,-0.32724670028664493,-0.39545202211342867,-0.6890268624439301,-0.5728870843984202,0.16495879514574843,0.09803689538392318,-0.4447681923970152,-0.7263250078331802,1.0455624597190811,-0.2057742125621908,0.5325430482667385
AAATCATGACCACA-1,-0.12238706609726671,-3.6055328007242293,1.530574976338639,-1.1160829805158003,0.24758915054492786,-0.03169179449570851,0.04688031761583749,0.27484741095664966,-0.17826597111395184,0.6908478558450171,-0.8083599597622355,1.3466386079817898,-1.7882395273865397,1.775576467213991,1.163642767911005,1.6199431700053184,-0.46976754726086845,0.49696244516583715,-0.28604615883282625,0.8617820354019341,2.2164622742744435,1.8519783100333762,-0.2467289407052873,0.7614250141178334,-0.4591364871744688,0.5045376863949989,-0.46140541534355783,-0.6149502180694897,-0.13530982672291061,-0.20862809137632998,-0.41200935740898703,-0.3073731950549319,1.0320068453702371,-0.16780267501066617,-0.3200602122448585,-0.7760862710366798,0.37741166023576345,-0.378126466266765,0.41244491384638343,-1.237547915358451,0.4900813346540726,-0.0358211204099414,-0.2067336027039864,0.6676752341167862,0.8600278759578635,0.10209253588266051,-0.42927029988981014,-0.7387909053349472,0.6745896211167949,-0.027699000697349555
AAATCCCTCCACAA-1,-1.049748818251137,2.26420306270856,0.8211835270673429,2.891065772028789,0.21881017138031184,0.22170874449970823,-0.10983411840006538,0.8379111040125818,0.34819225096367257,-0.30321129455540924,-1.7306108392420725,-0.882073496516724,1.772579497757977,-1.1841652195901962,-0.33217689381249677,-1.0054896926853665,-1.336681697389968,-0.08874086113800954,-0.10437945504868996,-3.2005919200432347,-0.9753001975857425,-2.175171180722204,1.9162615712704363,-2.900543702472665,0.9067864884878595,0.17652191368588205,2.016120617274262,0.19049181991004382,-5.608158979234244,-1.9126283576620382,-12.04488374216406,2.659771580799296,-1.805087617905621,-5.102128811826633,-4.011380338481388,1.0165442585178417,2.54660066942263,-5.835078727692647,-3.37894780438227,-2.169560255802691,-2.530625384378964,-0.6143661299946767,-4.329463257227102,4.457431617567212,-1.3492541166549172,4.85863637360389,-1.9951613113617408,3.3188670739959516,2.412252049753716,-0.2062311183426585
AAATCCCTGCTATG-1,-0.22944960261300862,2.590238127971625,-10.264271914520894,-6.7970193178423735,0.15453543761619484,1.007674386330002,0.7636959631133428,0.49599806456879586,0.16782417654909226,-0.064180316061861,-0.8911312293725144,-0.8184403094955175,-0.05450181589391524,0.23102654851413398,-0.8208865184716871,2.435126910525593,-1.059882059545569,-5.447348125139562,-2.7092454348117583,1.545156600123392,-1.2029879948548847,0.3223733636672684,2.305541572053348,-3.940872219501701,5.31612018223517,-1.964247600310446,0.9553110865173795,-1.075688213325857,1.6341360285979836,1.5030088817946856,1.4503508950448667,6.71961261171456,5.655043013226482,1.4938725686975007,0.7270295804817855,-3.689126341696039,2.7374990807738073,0.8264241359429813,0.5931131094965534,2.634219073821842,-2.6910586799526404,3.904552161157926,1.2375440897397687,2.1326278187168723,3.4035386511005985,-2.290573140571109,3.345163242367322,-5.329695006583817,1.7710290410727172,0.37456272360510456
AAATGTTGAACGAA-1,-0.4274303027043694,-5.951529911985725,1.1940887603563297,-1.3023408922962134,0.06198232048927966,-0.07282761837240481,-0.035897683007775266,0.3743894335733642,0.06546441487960579,0.037565790676567554,0.1887638662715622,-1.3550584970355615,0.13358066289073736,0.1096820663516995,-0.10068528742503136,-0.2223170497666665,-0.2742207815788211,-0.26932302328966085,-0.5354814048713648,-1.0300519110062651,1.443433158521359,0.5238453694617218,0.5945365595430815,-0.2786950950983141,0.43329568091352333,-0.2521786332309128,-1.3228110748755078,1.0516103306837699,-0.3101620883479926,-0.5976086641401555,-0.1356932140607877,0.5343236183677044,-1.0806744721478416,-0.23741720411667638,-0.6222707030784808,-0.6994934280970246,0.519930376718915,0.7135304965766472,-0.8380587747078379,0.5065081311544276,0.010254976765460486,0.23674168859845385,0.6193584035216275,1.0676369779922736,0.1099833951338357,-0.6233497620362101,0.043071601520054875,0.012797006495544376,0.5780410204078716,0.3648109559735524
AAATGTTGCCACAA-1,0.34410383142153456,1.3999182969839654,0.10383464135364162,3.790973461527585,0.3764674872145315,-0.9697118599192521,0.786439677388481,0.7607495798284594,-0.6948574221642607,-0.794849610875506,-0.09995183452725899,-1.946672890400274,-1.23939226924741,1.9920629759729178,0.7220758713083831,1.4934836748156266,1.5269287241835696,1.8995062064349293,-0.6872325111556747,2.062578009106617,-0.9351463062972626,-0.7425386988825315,0.8196238235090798,1.6403339576230693,2.2931713235461597,0.7687299425279641,-1.6383760975954687,-0.7598550256460279,2.5105028264212286,1.2678272204617098,-0.3233026108909969,-3.0396766278962253,-3.377069800287729,1.0192290152789072,-0.15828885773060175,1.0648815743484197,1.634813339270434,-0.40855925366432355,1.4694600062034726,-0.1531167397300272,-3.352180931403397,1.5462307877528185,-0.9073423093411863,1.3925836629288924,-0.023399350944849295,2.1954062222753334,1.8553349702653887,3.6228180911851258,4.988924487801781,2.0368587800337923
AAATGTTGTGGCAT-1,1.2168441625846234,-8.026260945498496,3.7756700699074734,-2.546358050094209,-0.14671271956970072,0.343775114527712,-0.3364030033582637,-0.5043829861720596,-1.1460328258181487,1.0842739051102277,-0.6548476239690969,0.0369062104984408,-0.7054203262062233,0.7429050392605004,-0.25526000891866585,-0.8266642192282753,-0.09095448420876463,-0.30846449714196944,0.6151074798583233,0.8803451773172152,0.25121970718484055,0.527310627134147,-0.6379703753056808,-0.30665520588813794,0.2861954323297483,-0.3236369591549977,0.3444626813378021,0.006004730364997879,-0.21268463793321019,0.19707893690828604,-0.35329378848437915,0.19487227540754765,-0.3810189088808708,-0.13473403007957682,0.22423023736619632,-0.5564121360491284,-0.31752206215650086,-0.11410491155253016,-0.3075506462670966,-0.521704075201557,0.6626407055181003,0.16614181941380213,-0.17086052170457527,-0.6684591826659193,0.13050749973566098,0.20992074334883742,-0.31139353502922673,-0.5304388365537506,0.9188989888698738,0.0058757563874932695
AAATTCGAAGGTTC-1,0.3185840803807366,0.472220866422946,-0.16013612658688675,2.828937643343607,0.6674168901900037,0.9049954351100638,0.4389095828646211,-1.644371213000696,-0.502786154784936,-1.612128245172418,-0.5925912812884359,-0.14331741150667154,0.4263531856222949,0.17211022692542982,0.21699686143544406,0.37242776503817004,0.3484357024772766,-0.24169437147995904,0.13903957250175475,-0.34407264335288945,0.18085300391175496,-0.03202482177107169,-0.07182257428736644,-0.25991530282258446,0.5041640644630173,0.3026165964077304,-0.612685921152319,-0.5059488169422086,1.2148293945072262,-0.6190289955666255,-0.07392056590447231,-0.21004606752330524,0.017694592264927853,0.5268361430465387,0.42627520384247225,0.6605118968720484,-0.38030022615255316,0.09227749858419676,-0.5208174178917494,-0.21530623100803878,0.7921511982945904,-0.5120167100352702,0.3322198834917701,-0.20516013466747518,-0.034172955524721965,0.24734434854941753,0.15738546900426523,0.7270040689881605,-0.05061770751676144,0.06064462929921079
AAATTCGAATCACG-1,-0.12561401326486155,-6.026105804418725,2.7435667220100264,-1.9140386347659115,-0.0033910572932503505,0.6736796733725291,-0.339061514602312,-0.9075959991545735,-1.8124843645782525,2.0648155171361053,0.10249633143329054,0.6985985469435699,-0.009871806717177883,0.29158663418645353,-0.05751399301771393,-1.267266566334451,0.8858434461556302,-0.8835016496288679,-0.4355258492639705,-0.8124152101953581,0.5302771770414316,-1.0870875139553169,-0.4960783220525364,-0.9425538024540971,0.5966219965106587,-0.07774194146561193,0.19593217846389385,-0.9421337274424921,0.2079433030303809,-0.19591972570171173,-0.08471077972022789,-0.7136377475962242,-0.6813732546421662,0.7592117088794298,0.32854045339737825,-0.902706426082369,0.5162067303436342,-0.41096413537783005,-0.8570419009403378,1.2356830124792448,1.326936159609224,-0.6229116298926864,0.7276399336965749,-1.1877642195652514,-0.8124354763472352,-0.5548068382810156,-0.28274609611996493,0.5968632740023954,-0.5036181916945967,0.9042668147157837
AAATTCGAGCTGAT-1,-0.29925301231058676,-5.742835541643544,2.3365285343984983,-1.0145838841152346,-0.23770639460658338,0.11031106122536186,-0.11990521257895377,0.13083118472213426,0.2297988781732786,0.47035537626682866,-1.1014546677468302,1.2401210990172153,-1.0437391301366743,1.872046308808533,0.8868839725095938,0.9149779598101287,-0.3762890964009763,0.25076190172082224,0.06143935441535358,0.18386122306066727,1.5755614172854697,1.2437741778354279,-0.596054900311949,0.6474175070129052,-0.5654239964822028,0.1888538135315349,0.04138164502465139,1.1615865572037238,-0.37874214136850526,0.0352428326499482,-0.09755674576282847,-0.10547569145094336,0.4991624787963856,-0.08858520252352034,0.04287261936621925,1.296003240827238,0.9005339748061918,-1.4887289172532951,0.32515055839294454,-1.298867277576263,-0.09798314125102245,-0.13305433120726257,-0.3608720822444539,-0.07005330561813299,1.005384093019972,0.5930928168537645,-1.180253751460402,1.2250833971800064,-0.44729960786243333,-0.9146123610849574
AAATTCGAGGAGTG-1,-0.9754330092167567,1.2906173235995109,-0.04121370511492983,2.6895263019132285,0.03166581757138477,0.09104909904333248,-0.3726815398972203,-0.007239906508829115,0.16953168542006997,0.16868337196494443,-1.3114957570653176,0.09426637176889588,-0.8246176440963318,-0.9206475271922768,-0.12732757377812662,0.09980038242590056,-0.3490454813508543,-0.3914364644052792,0.5866610138443427,-1.7727528349640473,2.255615077029856,-0.5684753160416482,0.5687007322752826,0.12083147526663489,0.8705823131513595,1.2211461733645197,1.054253303224666,-0.48250317993051367,-0.6135560743196679,-0.11727872354198188,-2.174106873771814,-0.7466428121803009,-0.9411532603264454,-0.6390498651054158,-0.38398182880244375,-0.668073694308652,0.19072823413504028,-0.9642594202108868,-0.48124679979556045,-0.024917077270771013,1.071910304808852,0.19941891068480758,-0.13011530930737797,-0.08334060616691528,1.0975324365144268,1.5937676599708388,0.7287265821604579,-0.6970048256344642,-0.7063375676647202,-0.5513735679349907
AAATTCGATTCTCA-1,-0.951100461199485,5.698814472193332,4.903527746666551,-3.2682908001377085,-0.07777362666091513,0.49896507421364766,-0.12307966497289706,-0.3511471510635768,-0.04804897946071918,-0.6225461694884411,0.6254568453009539,-2.03881510829006,2.0462856326881895,0.9076973700248498,-2.2731155688889886,-0.9605530393311834,0.3720816682434631,-1.6134734616492972,0.5351348281753213,-2.11364391819522,-1.157376276934185,4.555544031622661,-1.028222626115679,-2.8640703473372,-4.986638054918949,-3.8517519437723426,1.421510137660639,-0.14723079324479385,2.6835410960678354,1.831123713872412,-0.9106403217156089,-0.7663666877314204,1.0114375422413704,-2.063167814413616,1.1689801022483395,-0.5526225916557022,-0.682758088478387,-0.565904915775425,1.7724928298002876,-2.3383134927819667,1.368666477290358,2.695454638825684,1.0130103709832095,-0.5334134878386073,2.624311682613729,0.308851290803626,0.10195277876475362,4.010712806699505,0.5816093421983438,2.3990533295946994
AAATTGACACGACT-1,-0.49292270646444786,3.1669442919823023,1.1674262326714557,1.5656520281290478,0.32473123693552675,0.14635337586929748,0.027450092873247733,-0.17565851666537063,0.07946477670302537,-0.5671158490880861,1.6129149606673319,0.24502097793401498,1.1510222887926296,-0.456244461542469,1.444209997053644,-0.38309698463119196,0.06271905220997076,0.18811618153453352,-0.17383991070253246,-0.05821388250411136,1.1322420748448583,1.2988115709587738,0.6219447203679813,0.5440417597923299,-0.9242810892710634,0.8206111595321987,0.0016567854162436446,-0.5531600038063372,0.27714670555331855,0.5711971045637504,0.31804657092559135,0.4763187330762175,0.5034000760383139,0.2604601027697846,0.5422809031753059,0.7764055470019315,1.6399381393728627,0.4416355155863046,0.7940299337132194,0.37018855574901166,0.6525736887902777,-0.44444781129540145,-0.10082507285033432,0.12422528646052916,0.16462287047833254,-0.1539962573889554,0.07719282441723396,0.24127626370614652,0.40310318828059705,-0.3229545410325807
AAATTGACTCGCTC-1,-0.1335062306668148,1.3651074441799247,0.14900562489916416,2.5171542256864434,-0.01564167767629676,0.8058852267888437,-0.1691526724915745,-0.8249624098183801,-0.6436566437428034,-1.3041241504199896,-0.56248341749353,0.11804071660289711,0.4068811883969274,0.1031999295905249,-0.0954834279005301,1.4723009693297056,-0.9270338208955953,0.25460605308581974,1.9035005149891497,-0.08810142857449317,0.2649380766155555,0.08067281446645234,-0.42918284384813443,0.24409120544044555,0.49928453524213856,-0.27065419014622333,-0.3367149049384724,-0.8929078973506228,0.6383663498966852,0.08297908888997406,-0.3174702838873054,0.17716812091976297,0.6947483486769545,-0.6327250376444162,1.1465867887077117,-0.6794756850822766,-0.27707663869557986,-0.6202007987713084,-0.1553248486122974,-0.21096256120379403,0.24308082674649445,-2.03324180601395,0.215689533924899,-0.1931659029691745,-0.7926422711226142,0.039080724075598976,-0.7848845796834107,1.186168266425386,-1.2662550194144386,0.47913124964232146
AACAAACTCATTTC-1,-0.08780549166080334,0.29740567259224027,-1.05665106355332,2.468878263463245,-0.08841350540554682,-0.5044422782598195,-0.2142352987660533,-0.5203999534581017,0.26337629979618027,-0.3364137476582234,-0.5800607488197485,0.7142128788451734,-0.7454827841424844,0.3110764818810418,-1.1574095293665894,0.8382501967641607,0.400070108919406,-1.359525621476108,-0.529980899451893,-0.19178839021498434,1.1593114076359992,-1.1748359744259569,0.7146923900185025,0.17233901218880712,0.20821312588623617,-0.17460579626969303,-0.3081470235143996,0.21163943751418282,0.3341271743899233,-0.11247104146911781,0.16847979255097237,-0.4537906151633859,1.0855923670798537,-0.8292454925895645,0.09365610237092731,-0.23729338836207536,-1.2435145585243261,-1.100646314792116,-0.3492076593685435,0.38009638412907315,0.16904117696491183,-1.0075144736253125,0.8017355121382415,-1.726852155513388,-0.28094485506265277,0.25978081892786065,0.8689409225921934,-0.9395190669047451,-0.08716851527794464,-0.2652306700424091
AACAAACTTTCGTT-1,-0.6453872617875314,0.6801495027478683,-0.4359335275365691,3.7343906093290054,0.2986604400093699,-0.018498068293040265,-0.23973039920538203,0.30784735929393475,-0.08146206816230496,-0.16607105507505796,-0.7173914245515686,-0.6923567952828759,-0.5539924763259259,0.6401182115800301,-0.5558963069252743,-0.3294087403198742,-0.4363989948663148,-0.3297592481803396,-0.4573260305202021,-1.8770310525413294,-0.5894043646206135,-0.646434907740536,-0.01588856983959546,-1.3791483099192496,0.9812337172231923,-0.6389214833325056,-0.2012986279683,1.128926275686193,-0.5028865911268886,-0.2641403933506281,1.7480706787360407,0.4557936377114011,1.1292710985828744,0.408405385414222,-1.3308669650933886,-0.08372904468932421,-0.24691494535900507,0.7225573699993428,-0.15311294401702719,0.3462539768952397,-0.5011326711123485,0.009241818324785017,0.020957816029646706,-0.4951115570689791,0.47964071575120343,-0.08513730221569568,-0.014561621760684533,0.22873350291589084,0.22725687348653098,0.8990192979079982
AACAATACGACGAG-1,-0.19551223552355274,1.42698303633438,-0.7582407930518191,3.597181048222783,0.3655885006897071,0.08369051480548767,-0.6957490263492959,0.06862978950813252,-0.4029497671391279,0.5163084359002406,0.08869718001711992,-0.9582717757403296,0.11288680666804128,0.18478002731429813,-0.0005085644846650611,0.3616146623494445,-0.6161899720762564,0.8575799866632718,0.3917377235206422,-0.022685631621397806,-1.0178891980501548,0.8327057753267456,-0.21098270721572665,-0.18074819902357492,-0.6954394637009792,0.23147353811505705,-0.8612671736009188,1.5013168082572337,0.030841833843013144,0.5078215874222086,-0.5409432469569432,-0.23737356991101152,-1.521542921129754,-0.6789028084092114,0.8326949202040189,-0.22140475212700333,-0.73154772940916,0.18010905951738476,-0.7034828390419696,-0.36602175368869255,3.3603611322027778,-0.08717787457400186,-0.7187900463177663,-1.5209053857260169,-0.15376441169325783,-0.779791723729325,-2.40520857048652,0.014607512896678762,-0.7592865734030871,0.5873864178128468
AACACGTGCAGAGG-1,-1.0882647109853094,0.6290154587150086,-1.0287844307449125,2.7150174270644016,-0.04477551990492781,0.07165486881844849,-0.154841833887423,-0.217197874945662,-0.8874745854325451,0.6229339885630576,-0.1798200013412121,0.24391096450311062,-0.5363723926115189,1.5317560436836761,0.02514596385233036,-0.6136230098312871,-0.32606114307588707,-1.138323833029862,-0.27664339220511974,-1.3965466059114968,-0.45541647862701434,0.5261726399233022,1.1380538593686094,-1.2802623660089072,-0.9148512654341454,-0.4570408583405666,-0.1760007209344476,1.0995695417030147,-0.27941443455448245,0.3051145430528839,0.35250855218436344,-0.7050440041244268,-1.3431093382379595,-1.21093299002173,0.2955370414694776,0.3932317839976809,0.8522636930484482,1.0847539546013911,0.1749867177989226,-0.8923522488281017,-1.000933703869179,0.34010015252745107,0.09632313049260133,-2.87000700401184,1.6605078970977878,-0.8507873052192254,-0.16618675264807414,-0.8876466631008445,0.44991952168777016,-2.351156122151385
AACACGTGGAAAGT-1,-0.16157086812286414,1.0396145845782634,-1.2289953151747421,3.5730104349188596,0.27110203206655914,-0.30815784436126825,-1.5897771607264362,-0.2884247884319834,0.6247440798075844,0.13369106902238848,-0.23448532571988387,-0.6880921236434722,-0.18418544048250093,-0.0065964712481903776,-1.0978049760813244,-0.4819341805110457,-0.955170520842187,-0.4238904897297986,-0.026048188784285303,-0.2919933755925115,0.5888144876159902,0.3632185344849905,0.2557083458797931,-0.7143581354815585,0.6918392249029516,-0.2070589102037725,-1.1181267719713095,-0.026134039378499667,-0.16833115122474762,0.12293504640446498,0.2299401385928933,-0.3456568386389764,-0.5015062591205804,-0.5475120449383437,-0.2666192154994764,-0.4890034061217562,1.3175872553912973,-0.05998417424881329,0.02535615530520735,-0.6988917476993813,0.09654418277918804,-0.41641638561503924,0.34178057476348683,0.5173681379703734,-0.016373696615022762,-0.6528921067802188,0.09916116360379663,-0.16928916945521294,0.12385030763648366,0.23489114799078953
AACACGTGGAACCT-1,0.22770502040896773,-7.762664350090782,3.023218811012888,-1.9008766657319738,-0.20581075399982965,-0.9285346941968298,-0.4010624386595706,0.04552170780101139,-0.33171847948478606,-0.6785033626887161,-0.04613188940503731,-0.06649114247317178,0.6870979655770555,-0.18819802222687723,-0.07958252713283814,-0.6485886969886262,-0.6988091673481768,-0.19537007108934656,-0.17107114474509238,-0.9265995166120115,0.2660471434211845,-0.2359190037393186,0.2665015218445449,0.35653093331998253,0.08783439526792036,-0.5644239799632884,-0.23270586107737673,-0.15846468532611094,-0.1726919146670012,0.25670399979549086,-0.3539555537841341,0.5317862468151717,0.1896999329481136,0.9157850490516553,0.5521909345072991,1.008047180499078,0.9714616973892887,1.3974074840905393,0.6597146934428997,0.018264235173767213,0.47328859904967846,-0.33479738651743596,0.04594260546666243,1.149138972017208,-0.7212569425679842,-0.919600241245162,0.8507804021681317,-0.14798920559528211,-0.5821023488145508,-0.22874200002864828
AACACGTGGCTACA-1,-0.8056786604626438,0.859594622709496,0.43561910808556537,2.74894536948805,0.14404643039190013,0.031374167614064516,-0.1910721679098082,-0.15566922994027074,-0.43147408857011416,0.49336873322350716,-0.9461185464159161,0.45802553754763836,0.474518280203984,0.45665014816582794,-0.023819617404218382,-0.09336957821689135,0.5459341587092248,0.2141057747706641,-0.27116509740724787,-0.3262073144913584,0.7455965616583591,0.3831273239273787,-0.31933338622130275,-0.10743960638882212,1.0306162797815106,-0.07611921354462478,0.11758066215366683,1.4216352629790936,0.1334405641767488,-0.22202314604431736,0.5885224118153646,0.2764641394412295,0.17157807643589207,-0.4586599926537535,-0.7761409231499913,-1.0172560766816883,-0.3068204132135285,-1.376523765206346,-0.07054939403987479,-0.4770664052530976,-0.000287889485942161,0.7740837633432543,-0.20220809774029072,-0.9895904115526625,0.3380819472627407,-1.523018735190085,-0.6335694168576441,1.3965526107729975,0.09810004230264543,0.39570000964915836
AACACGTGTACGAC-1,-0.027245981765253058,-5.015300757627545,1.200102146732287,-1.3679164433130226,0.08702794880138703,-0.05977141400614549,-0.32958725364115826,0.16019722585697174,0.03512404659948387,0.8310022616201032,-1.1989546320667153,2.101925985808622,-1.0905430396066838,2.3366225326573016,1.541829398334193,1.9011203134025974,-1.4244733445286348,1.2003713732632366,1.1279680618695185,0.10777052215629507,3.136184195716257,2.6698502511877784,-0.9347831788950836,0.9532841360130322,-0.9115429486527017,-0.2547697498062692,-0.3929490836290743,0.8130638833252803,-0.7971173911916463,0.3199325835423343,-0.05748552247737254,0.11259880289191165,-0.0024436276084963057,-0.9521588194048932,-0.4339076521279397,1.206367604216843,-0.7487762708414375,-0.2768180031503658,0.2403245587372608,-0.9823234068550314,0.001411281034525258,-0.48248489609460377,-0.1671182832673247,-1.161307656277165,0.5295513429807339,0.18801388959861715,-1.333885832670895,-0.31792575676897955,0.6450965129393932,-0.4156211623063781
AACAGCACAAGAGT-1,-0.08881135027071613,-4.878816829025748,0.527769540901938,-0.9102916553840408,0.41243809000017334,-0.49983247941722464,0.8587380344172834,-0.7721144851335956,-0.6145444701273286,-1.2118593889432105,-0.038136446422921355,0.5368240218656306,-1.4903456649177145,0.29845443663658433,0.3804659592014897,0.29072473806246435,-0.2371241116610544,0.20962213530524415,-0.8366179860300335,-1.0608995622076713,1.8024565632192449,-1.0365375308655387,-0.3352628795232099,-0.9148360765382821,-0.6863320739624701,-0.11746941915239867,-0.3690042663046602,-0.9786927899016293,0.525776048089261,-0.07825379245688703,0.1670318633013813,-1.234057218651317,0.9779951146999568,0.17970445636989268,0.48782109582608757,-0.8330500342458158,0.8258751405037946,0.3354700822599449,0.5657167544380687,0.7998194612148585,-0.4017201289078964,-0.48195839518166766,0.03495243957081842,-0.004549234510006106,1.566888323608258,-0.27823705045727715,1.0763267528604572,-2.111253275019776,-0.40767040154239786,0.18187828721104168
AACATTGATGGGAG-1,0.06936777401992687,-5.345598281301644,2.5304441851280677,-1.9405024929229113,-0.0467980764923603,-0.33660253045727057,-0.6419858467437617,0.9929846826708905,-0.1950418500195586,0.14517698856025343,-1.5930939361699867,2.2316103371621736,-0.8818948622334889,2.2202550136183676,1.623196352051965,1.7046062250757,-0.6477991637421328,0.29407104360416536,-0.6864623343120462,-0.4458316882932257,2.6424570154952205,2.2650128840872625,-0.6422989142401185,0.9158975413891044,-1.3010019662475418,-0.20927995765395363,-0.12837937281354309,0.9018904425118801,-0.3821201125547396,0.5922687807317651,0.3583579297927238,0.3210261700595898,0.2415969812096338,-0.6339792981105998,-0.0790790150147464,1.0662869689894028,-0.4474619594827807,-0.5746711756643968,1.7413457387880698,0.2669223903843426,-0.500244779090168,-0.14426450066085578,0.24670779438151108,-0.8369267674569028,0.07859935175948715,0.4987343791785706,-1.111829020853295,0.44527663073801155,-0.3631950792955346,-0.5774481668114347
AACCAGTGATACCG-1,-0.5354844506922345,-5.555738002112747,2.1556525572104985,-1.9409405293462276,-0.06306500314318111,-0.049408895885693055,-0.2517988119133481,0.8280247865879509,0.0362675342980935,0.48321677911471206,-1.097743155756168,0.9172680747725532,-1.9064444719420797,3.3260923282904904,1.8768160893728263,1.4466227285668436,-1.4536254517231977,1.0306419052670215,-0.23224305549327492,1.9876130879894773,2.818880631862485,2.432091750211083,-0.38170741044302553,1.1845632869798357,-0.4169356126404098,0.1604890113065799,-0.8097106746175113,0.778886511604876,1.3836926175650044,-0.12857167435293115,0.8266453026621259,0.06220629624483929,-1.0638242290154936,-1.725922663050193,-1.18838338156312,-0.5681752222295646,0.9275258179667307,-0.45278876703319215,2.121226643970491,-0.9264760691155195,-0.18352717434823415,0.4388935122706162,-0.6370574535295702,-1.0132391937674465,-0.3565193391448143,0.4480349393478159,0.4500031492870474,0.17509121183216186,1.1855451220568747,-0.3280838598227066
AACCCAGATCGCTC-1,-0.29236359526469424,0.72337311636484,-0.9307110117218296,2.676282938585916,0.3498797620637356,0.250952230369769,0.5479464152098301,2.4388639263004337,-1.92559539080268,0.45934079546705103,-0.6322049204968105,-1.6871914281299667,-2.2015847034538347,1.518225792023982,-0.6559664877792322,-2.776690425665531,2.3048696041544403,-0.26145514139473114,2.2457101274741085,0.017776552108206584,-0.1501551030532342,1.4257260449782887,-0.15707838564365828,-1.1955246163185684,0.39902169840140356,-0.26180669343802715,1.0176779755014307,0.0794635877242485,-0.4422234656966325,1.054025347765977,1.4646314811739145,-1.2253469802666084,0.334111501792554,0.08098525421471149,0.15077571768333867,-1.0328678293109714,0.7305114370838666,1.8778863166548652,-0.5988468585784185,0.7044221320309072,-3.2194439184614945,0.6167906952049018,0.004901974173309287,-0.48607376289191234,0.4929036546530714,0.9209639369827972,1.3526098453154585,-1.1673382397144711,0.2588439338321539,1.2124140919438688
AACCGATGCTCCCA-1,-1.0479529646833816,1.6207900591549937,0.12104855675671014,3.2443447753675088,-0.023763583499184046,-0.015382993421679717,-0.18778524970707955,0.28006103504569363,0.2716240035709854,-0.019767964302141387,0.49984727358949615,-0.8611781254567564,0.2171578013154558,0.9440682692661474,0.5225861849211945,-0.3411299791915348,0.9679387425759509,-0.3818662746578989,0.3490560298095793,-0.7258921758041302,-1.2048488283477887,-0.7526470882058863,-0.03751341070117964,1.4805206119157448,-1.2437287807945347,0.25045295095865394,-2.0891268774006493,-2.8895104856952987,1.5942750257641887,0.3374453077355207,1.0329039870501389,0.09919928729771402,-1.2180085175794884,-0.43035197965725647,-2.39256411131805,0.26689136532054963,-1.5531918209831834,-1.9615683079651776,1.3483042294331176,1.1153131265577123,-0.5892876749306307,0.3423091422154524,-2.120485969528627,1.7256327610389006,2.586561811044186,0.41860305419573923,0.44238452307020293,1.1163944403189983,0.35547487663460564,1.5323302758699575
AACCGATGGTCATG-1,-0.043398278736011334,1.1869215734217773,-9.866923269296409,-6.208632829795128,0.21418218974444558,0.7881490301212766,0.06893366127729594,0.14211560563111686,0.5984062932081109,0.20571030419154573,0.3772484136710582,0.787701920504995,-1.2358767092946428,-0.8910393479836943,1.4464899431650247,1.3941298298773641,0.8226245783265935,-2.7251149345195294,-0.6415015361615091,2.0434373559320385,0.3834717653390451,1.1808107264494936,1.1519847121009936,-0.27290752470645985,-0.04068176364959025,1.2842570751804778,0.2147287341800256,0.21172810494172364,-0.21204083033911197,-1.7178413953483118,-0.8817281869890441,0.8526066871104729,1.3112971486304237,1.573698233404739,-0.9828619877840246,0.452050232990327,-0.8165496369584763,0.4680798322673163,-1.0537632945720758,1.1718018117056468,0.6764430193423931,0.48945148312560677,-0.013292206738675767,-1.2421639559640156,-0.18723134668150979,-0.47369184002220255,0.20459307928045078,-0.2031390312318767,-0.09270602254938029,-0.3976710211662994
AACCGATGTTCTAC-1,0.2688825892903949,-6.494001834418216,2.610400009998714,-0.8762672555976394,-1.325687073333008,0.027549481271574444,0.4639077224753007,-0.5334120787598204,0.1949959023668412,0.34141021067532,0.1796978186711704,0.018586300305143022,0.17939133219354522,0.03404669668337479,-0.25871323684685194,-0.08734300497265168,-0.023742673259130043,0.2741656327189135,-0.10071782922736439,-0.13395198620183812,-0.12442833317906649,-0.29893009131424586,-0.306883595527917,0.15542710790871692,0.5000208406280623,0.10461168241464822,0.4145109240327898,0.5824329510234837,-0.08451101410058835,0.026783648709293693,-0.22357371516137672,0.36019871218222577,0.11628962523747749,0.38394597189493573,-0.14876992698375394,0.9875078684513021,0.011940909574029775,-0.21007715095009605,-0.8500264361317775,-0.37222611819794676,0.5952519890306056,-0.18705930532376974,-0.18859748259516224,0.16516582619846598,-0.1020986259872691,0.040002192682008664,0.05745336805917736,-0.06730149074740863,0.16373995271602632,0.4830495525578554
AACCGCCTAGCGTT-1,-0.9950966833181807,1.297454326275476,-1.458472187919886,3.556224434497302,0.07603848264648855,-0.23832138357124977,-0.39263889951163183,0.14187145232636805,-0.12763560988427428,-0.010859773746259987,-0.3313200683617511,-0.48408738133687745,-0.34630116487556206,0.19963860825404675,-0.6172071763525819,-0.17782742757226588,-0.3167736528271738,-0.3152830474925638,-0.10424579759197372,-0.24313251882370837,0.8149093330759898,-0.21224279011299219,0.6477629240783906,-0.6370990950000027,-0.4343017151356914,-0.7366987496036299,0.18684119576177008,-0.5919346659294356,0.776887660445691,0.7953700348053186,-0.25428676704767184,0.3602574623633158,0.13061658813068333,-0.1492941284284829,-0.6691417317192905,-0.003955729956621181,-1.0987729703590994,0.6132165229585176,0.09306674859652753,-0.7288954100266662,0.5706958921848846,-0.9974879296892417,1.0624146587516283,-1.3585830890046904,-1.6539670850468782,-0.5600186403820591,-0.6841181920964157,1.5560203967759785,-0.43418482574559064,-0.8179278096704944
AACCGCCTCTACGA-1,1.028811770014748,-5.998710958298043,2.0507422518419034,-1.9029287489280717,-0.33693579281143515,0.9275074100255272,0.6079318122154652,0.2983096303785779,0.5299074847000136,0.4868878285789505,-0.5916228566503619,0.7864329975584893,-0.08863254515554775,-0.3175196859916835,-0.5875995510401145,-0.2001423317683972,0.37563642335715697,-0.14028448350331316,0.19006327346818347,-0.09847525449710823,1.3904638861738754,0.9004196624133295,-0.3530258968386173,0.6785362021623562,-0.004824885360227016,-0.1284040012282546,-0.1587570150669632,0.12453055663802445,-0.08771110818254628,0.6506379526107896,-0.24899569652973363,-0.032947974367594134,-0.6124721656272526,-0.24853032064681116,0.8405044159646222,-0.011200420120042354,-0.2993325942265832,-0.6005792744388534,-0.2040665380729071,-0.48152585280177623,0.9949841917975885,1.3218416855605892,0.15263125708403033,-0.8408633194000621,0.6806037558809405,-0.599508724691912,0.574643678130594,-0.11156247497672878,0.15982279338576455,-0.5645010286726553
AACCTACTGTGAGG-1,0.5687917653598582,-7.124428586792662,3.3521725117790195,-4.852377870872546,-1.612224316913845,-0.9004333599088468,0.5084092845475594,0.15948277983090436,0.026827040115965983,-0.7134771194654003,0.10825123101690867,0.9025415404550495,2.3342330968133105,-0.9028434834511,0.7159095943140118,-1.9461549892724943,0.8955509306583929,-0.23795304443176918,-0.04035030466336357,1.3454457908875759,-0.2213819069209449,0.13667294653235637,0.028484259874798634,-0.3999693559311046,0.6000372461443055,1.0981844587804672,0.2982832732097826,-0.16556021180339997,-0.06322581114629128,1.957628776837558,1.256497690635746,-0.4683053117444744,-0.19356799167260588,-0.021307792231952723,0.5805731679004283,0.6478314404112662,-1.5672057034049873,1.5305108422608245,-0.36317455720085406,-2.101161119495605,0.7703402105541101,-0.9320367906466025,0.3482923547098746,-0.7035718251407569,0.7802113186511528,0.21892898725075075,2.36712045579943,0.4921236043064264,0.4155912036817069,0.05800913058555701
AACCTACTGTGTTG-1,-0.9804805782220138,1.9294711436530871,-0.014529692460732213,3.5049275818718324,0.023950235239479242,-0.017798989144223995,-0.2782709263055563,0.05854778893833481,-0.025924765600767286,0.23637592451549985,-0.03824224006958066,-0.317149575665296,0.20413434079644138,-0.18578762542808608,-0.2832590769534842,-0.16601694470033393,0.228397917788914,0.2666509443988142,-0.11037958425169889,0.30802713643663987,-0.3081610207958351,0.17540616412171187,-0.10881834272324917,-0.07715248238427448,-0.12859036707486973,0.006426077132944685,-0.6714544276490116,0.9439715574693522,0.34346752626282706,-0.2634881963590885,0.17416329425160718,1.82273977326918,-0.043231175196395785,0.36536101527181736,0.42869400334244995,-0.38064185438508585,-0.9312731857972775,-1.107889250761733,-0.12081485807895936,-0.3686092655600923,-0.906645922380063,-0.34006795338498935,-0.6490173475002943,0.23090878691506572,-0.2192736777156337,-0.05467576139302009,-1.0557950418282884,-0.9530192177755171,0.10961917743127354,-0.41454155186724784
AACCTTACGAGACG-1,-0.5421754876273374,1.3127360204733882,0.43454111985021293,2.5188340001496003,0.6845478137361961,-0.9578776542737406,0.7333994670415714,-0.23285037684898063,0.09915665466918028,0.25286618716354303,-2.2566906933567816,2.087743327610226,-1.247017099163947,0.20997177290752067,0.21949177211546778,0.6152087629687195,0.31770749302503987,1.2941048735396408,-0.2660945180374104,1.0813496441109656,-0.4900782215534103,-1.431543933982812,-0.19063408413503824,-1.6652768331254113,-0.23670637589219123,-0.5199587863881127,0.2757107402550552,1.8924806210215612,1.0417204861383198,0.1754327523304932,0.8457639003718347,-1.1897793014420437,0.005137843892881855,0.01935133918832216,0.1215699052139521,0.6221387194874753,-1.2073552598526853,0.16461693072683647,-0.04449422238923978,0.9105443056946257,-0.619748064795929,1.0798782661947661,0.7422775244622427,0.10084045372835196,0.43158228569168733,-1.0143002132174517,1.2995802646393466,-0.977849584189209,-1.0426526151178555,-0.17044737002984411
AACCTTACGCGAGA-1,0.42028418454147687,8.523820372870603,8.656601250191663,-6.8719143943151,0.9088138384315536,0.7027879199208842,2.0941498203862783,2.2740694673545474,-2.554816265681876,-1.8521863110722971,-1.5902124590776232,-2.625385126936363,-3.9813824359274843,3.8748608274831096,1.3876330926443268,2.388906288422654,2.5144859030667646,0.9783497192140648,0.19736695895050477,1.2663176597496062,2.155271925097143,0.2032460287162774,0.6273758305095728,-2.459211585448373,1.8479385123360956,-0.6504135119088839,-3.2997951743944363,3.2272242368010016,6.341264470527848,2.510900303239133,1.9228684110453953,-3.2571949484186202,8.517417065644857,-7.101607715586763,-4.933224138807917,0.7564267144579615,-2.596167040582515,1.7367060867121764,0.8316891022368957,0.7431582602899305,-9.708892344356364,-5.332667034337656,-0.4940728383142139,2.122564603641182,0.04120409602788533,-0.6652706548061796,0.09142072541876604,-3.949732558374415,-3.9071028632325095,-1.4533717781419737
AACCTTACTAACGC-1,-0.5777703678529793,-5.056011209126559,1.6918067424359646,-0.3057317970038313,-0.08591326390566612,-0.24378801511783096,-0.19540001787889805,0.23947317554310804,-0.20389162558558252,0.5246073806539816,-1.3916876811702799,2.422594705645385,-1.7629586920431564,3.3275249888366267,1.232175137132828,1.3642651660593454,-1.4559500639937077,0.7431071404489946,-0.31862318689189306,0.34298377734646135,2.513198524310386,2.076842864693626,-0.6354586932167906,0.7819307059821905,-0.3511801418877926,-0.4340749672420122,0.10899542810303335,0.7787285492989161,-0.7901566919900216,0.02576985701110067,0.16234119885396775,0.25055851348976454,0.051728649970218546,-1.0464878988813482,0.23011141911362135,-0.22595236173461836,0.08095911890021616,-0.20790658892491398,0.7207605524889438,-0.7293380412566665,0.34466296580931466,-0.7962303958096286,-0.9548923786388697,-0.6269868625566828,-0.4891859936182429,0.08169273480638872,-0.7547936997838981,0.08196491707214243,-0.28901977715761673,0.2084057157175243
AACCTTTGGACGGA-1,-0.2728764521824284,1.124537995668815,-0.7343825636032264,4.041708035058821,-0.08855096492774936,-0.5662794879463963,-0.3707479769430804,-0.46476264214649543,0.023116018032056686,-0.14256977421957095,-0.6005717988942861,0.14913175967681286,-0.5924763157216055,0.36928566437159943,-0.7296922842410957,0.9179809940375547,0.23358676843739407,-0.29775361155040814,0.270112316677542,-0.3759741141594566,-0.3569281190806482,0.5461887753882781,1.514121167749299,0.9045860691362166,-0.2471910631499706,-0.5439542263546392,-0.01714126888984391,0.5597882250794289,-1.9462312172525735,-0.713137084058529,-0.5397252635771281,0.5682662797110092,0.14445935343405525,-0.06202033531472956,-0.013336200136578324,0.39257715020738626,-0.7178862600088259,0.43716210201909966,0.09736715174272834,-0.34501778102327146,-0.4420170972803738,-0.5114698210308669,1.6888662763408446,0.8558552995054913,-1.5892387469629246,-1.4243631981301963,0.46921642133102387,0.1401891153331203,-0.493393601280965,-1.518733508455636
AACCTTTGTACGCA-1,0.6759693652708845,-6.032888404934763,0.9516564526736717,-2.908900483494227,0.5112662981169436,-0.2953121052526063,-1.8839200228539625,-0.5817921640424484,0.10616221586073424,-0.12990734004454768,-1.835133369454352,1.6291344897580027,-2.521401986329759,3.8279188728294797,3.808465268852363,1.6155110851688792,-0.9841757854689961,-2.2509281522995597,0.15967444986212703,1.5748036890591677,5.236275498029711,3.2292410561011478,-2.4045116398143778,1.5008524947781,-1.1939278101907613,-0.9588281570262573,1.3478856597900457,-0.1693676002083867,-0.775191309630788,0.6491349714849437,-0.9687794321676277,-0.25364717167594997,0.7036162684702629,-0.3696015603461483,1.3272281754711253,0.16737401997634954,0.3308530986982945,-2.4357161727797756,-0.25693496099970015,0.271050072176784,0.5771712259572478,-0.09000322405887602,0.8401080673225119,-0.3267573143316952,-0.44609495521425335,0.49170290614476453,0.5582313382644556,-0.017435730219212686,0.6353565638460621,0.344376091745299
AACGCAACAAGTAG-1,-0.9347003104042437,0.8091317134978311,-0.844984593874601,3.12979264448495,0.009692820339453082,-0.023335712207200557,0.009201113996008398,0.011824865440247308,-0.05496901659999322,0.013617199093357686,0.2733378049599437,0.7116297165399668,-0.8705051841152092,0.44779347000690156,-0.12086333285206771,0.1716399275446019,-0.2795369655626053,0.04967718374628488,-0.20099085076434403,-0.09544509416269582,-0.1503807692433573,-0.3063128497879125,-0.09012043163124421,-0.015328582909105354,0.18253775371886174,0.6610764983234049,-0.35055515121274,0.06656209955185312,0.2868494185322149,0.016958051196857477,0.6022486254862289,-0.30584555754296594,0.22471010278605016,0.2549658222212061,-0.12104786801573231,-0.22815432244331285,0.37948513491575164,0.43551501061065073,0.48200158151158795,-1.091614157511315,0.7275472046561039,0.31305748376110093,0.5643228178868478,0.6551993347912799,-0.19308832842237372,-0.4771707873276215,0.14654030236969245,-0.0836800727058325,0.5519605958476516,0.6711434993713103
AACGCATGACCCAA-1,-0.49510427247075434,0.9341131422413536,0.2619731117762117,3.4851775155757054,0.2241735568510332,0.08032298669776107,0.055766611659412685,1.2028888530421198,-1.3654234706819421,-0.3831084577934358,-1.6784195813135918,-0.35852001144874507,-1.6574293903667243,1.153926329638077,-0.38325886168686174,0.9347519942463405,0.37766206253990886,0.130470220347497,-0.012195976165376602,1.0934225454401103,-0.664547198666722,-0.13047342154222247,0.5796763915021003,-0.3635108926830035,0.954234746193007,-0.7488457367511635,-0.5465718082559944,0.23087000681873926,-0.8150607756598617,0.9859919860005104,0.5292555040865412,0.5617822277006608,0.857434973579608,-0.45700396225668843,-0.23961070206803975,0.054633755998026695,0.39738769524160467,0.35432295759306587,-1.4734541270864094,0.11632219166298606,-0.7662282416265749,0.36499297687320303,0.4106198515992665,0.13033426595646125,0.34685614210198523,1.2099598739882982,0.22338468021059146,-0.041422732526704475,2.1279326106161514,0.8862797143575952
AACGCATGCCTTCG-1,0.943212727366646,0.6341002594862597,-0.6331634920992266,3.4155878328938174,0.41796696505685593,1.1259145530387134,-0.9940720991164754,-0.882102722048741,0.9183534925548378,-1.1523182537288723,-1.2130462879808173,-0.9311271594136876,-0.5799604540424143,-0.1545155813712527,0.5237146635060854,1.6590689564727268,-0.06762809466333719,0.8914726947740035,0.7356420206045311,-1.2601942793242107,0.36531704152436756,1.1875910511775183,0.6107258109111324,0.04858353614457939,-0.5291898662523289,0.7046120401801477,-0.44226846481366033,-0.4919663128050751,-0.9874155608441608,1.5585246618662758,1.0909470997470132,-0.2187971262909042,-0.06891958656353497,0.42556966907422555,0.7367775365545941,0.06160462884434961,0.19414844865195585,-0.5984652694510011,-0.5104286379023428,0.045214855089063075,0.2169509980072182,-0.3014664556857802,0.49539049250290973,-1.0520058170981357,-0.02776967134435529,-0.8872305381944685,0.48430044188561844,-0.9607889797639922,0.15956789085146195,0.41766997478560086
AACGCATGTACTTC-1,-0.6696754024563695,0.3165844484872047,-1.0444057734340364,3.2977605538762758,-0.14983481138282134,-0.11204768014703577,-0.20739796009390657,-0.2566589240133146,-0.37843088467641434,-0.3081149252973777,-0.10848434258574546,0.1464257184545168,-0.9689831813688619,0.9203533402314305,-0.8422419955313021,0.2994671020035099,-0.0722037464758135,-0.2547363782915759,-0.5015064465313869,-0.7468377933918451,-0.2497103896311013,0.25909481482785035,0.055015161094460516,0.21935593403514086,-0.34950573482262826,-0.41774878593262116,-0.20648436585913693,-1.2235740275945082,0.6440349863379438,-1.1227212628468912,0.4488537087307977,0.29764107915075083,-0.8731845794766726,0.15116539298634413,0.2799359677169757,0.039587914520980566,-1.0363053313532946,0.4964650951015103,0.3097332181565681,-0.2515276863937843,0.6174705829038902,-1.040094867620789,2.0657305164182658,-0.3491149455362264,-0.8259675761100695,0.9762464916015674,0.4269613170787744,0.39793159680112367,0.11244569108888591,-1.1412508861263788
AACGCCCTCGGGAA-1,-0.7149633892098022,0.06549189902746556,-0.27077443614946806,3.597811198019239,0.029186719033236698,0.2508656118321504,-0.42295110660132595,-0.49602108278493656,-0.25240137339064705,-0.6509830716761468,-0.37426841946341155,1.1562528632504083,-0.7592018015055518,-1.6381437587787102,-0.8541375321787722,1.0281888016295877,0.6407111728070839,-0.3014944084039286,-0.01892524488298508,0.07367140904462371,0.08732612278719676,0.21245589757222771,0.5662265360259379,0.2319450557643202,0.020401212188084855,-0.4218556732718468,-0.5079312484583536,-0.1469460478865226,-1.225927545023762,1.0025954198736287,0.7664387191749902,-0.3305126076719094,-0.7541680766291275,-0.13501147770031424,-0.7141892123587722,1.87274630192494,-1.0700894342502816,0.16092129939884292,-0.0452574797648474,-1.4146689069397311,-1.099861315313282,0.35545610952345524,1.8743506645167343,0.47226667409517975,-0.6526520507551429,-0.016247029459465434,-0.41075086163120245,-0.17094974393946244,-0.42016485125335984,-0.8085637992206751
AACGCCCTCGTACA-1,-1.688263679992207,9.705024115766369,9.947212711324873,-9.78588926539552,-0.4284119332685711,0.5911298863320296,0.3284802370436697,0.02581178769737664,0.2754018625444426,0.8008184171062094,-2.472356496610321,-0.2617921752298699,0.3571800139581144,2.1815288620802056,-1.1276404115236516,-0.2107842509480915,0.582258424612386,1.499905985756229,-0.18192565597044844,-2.042230066506273,-2.447798317402743,0.7077778014528877,0.8268569313945262,-0.6136158203741402,0.8444552049861023,0.9898348647829653,-0.5901930595786891,2.6225503898792595,-1.0694332573657837,-1.1015368844447775,2.6860550828295655,-0.5242892979001568,1.0351377589384463,-0.0647260649504956,0.6155234207276806,2.068167273303461,2.0768416642908916,2.086252262854046,0.07787456797762862,-1.1540279140055838,3.01549175531435,-0.010900034286287053,-0.10082871448848837,-1.3828366700730381,1.5898619585478349,-0.7770234306942442,1.8698967949311351,-1.2616822151984768,-1.5254628463107425,-2.026816052998496
AACGCCCTGCTTAG-1,-1.008489592819966,0.3744901592428277,-7.7280797282326805,-1.8991239418962638,0.07302354900869962,0.5316382686892484,0.8333683718203521,-0.21202432419261824,0.410210107935818,0.4722291700739022,0.42551253297436314,-1.0880155224224117,-0.8421694948157885,0.41041077859279945,-1.1469979433842195,-1.1167319448564428,-1.6311388451539386,-2.0229969437571764,1.7599230502918872,0.5003152693150248,0.4156628042756941,-2.4869443731766196,3.4299106690962695,0.7476454654603816,-2.105842143233412,-0.7351690099258801,-1.6366176155760628,-2.7106761625855316,2.1437584546358646,-0.35048737641737826,0.5128237353922124,0.6851404814229626,0.2577330599754374,-0.7107147615236271,-3.6617135376519894,-2.295123938892672,0.6393412332702333,-1.579549996849154,-0.22903414616209905,-0.7001057993289199,-0.010904952668484694,-2.816240469136264,-2.90867740567587,0.9707744077313107,1.9807272365572883,2.2130416753090256,-2.5201800913587347,4.196158089328642,-0.4982550221886165,1.1486130403848382
AACGCCCTGGCATT-1,-1.0664084154043207,1.2817774195483704,-0.4662858905356795,3.4626303875659477,0.04899471053635289,-0.0006438081779421706,-0.011539112932843876,0.0632604187943976,-0.030501994786224257,0.5786838549177337,-1.0537250249640078,0.4006777937617044,0.5288513775550556,0.9889666011434728,-0.000763096427760887,0.22562713721660344,-0.05351871906098975,0.24701419707555725,0.7167381348348713,0.5554950892027911,0.32035422756665866,0.16171009347352666,-0.2433500922697002,0.40037229528654633,0.8740008425850511,-0.6096940876036572,0.1183938994474535,0.7801493750962102,1.170029744994646,-0.6737317418536185,0.28028685494472194,-0.04868952130498465,0.21485201918863825,0.04890776487916715,1.2134880766872989,-0.41963801832793485,1.1478334357186488,0.35531001550604907,0.1359757329653971,-1.468491180774212,0.37534043741462875,-1.3941924187291208,-1.0783610402063435,1.7980098709795336,-1.1163981196549129,-2.445382710341243,0.8906040335191986,-0.29862211303989317,-0.11758949422246323,0.6068980266212287
AACGTCGAGTATCG-1,0.8818228308876956,9.771034427781885,10.260993597490362,-9.495190875056334,-1.04144319814844,-0.5052116618128515,-1.7319204453834742,-1.745233366178057,-1.1895486879231696,0.826982855053561,-2.3239745313972575,-0.9243590810982671,-1.7938863149345288,1.3917060805322947,-4.508387595834643,2.317911215631711,1.5300020783110475,-1.6297992268261772,0.4006607037790908,2.2158341452262027,-2.633908728644241,-1.392792067952018,1.9643130412810632,-2.0728835626502797,-1.4905918841615844,-1.4872199505381964,0.3486057088933492,0.5588159401834958,-0.5799273065980771,-0.5558194366644282,-1.6537944415630081,1.075260737404544,-2.298933772872826,5.198702849020873,3.5741093763619745,-2.9683796967855987,-1.2249950853417972,-1.6879735638268625,-0.9980130608574371,-1.447200110914568,6.439487364753013,0.9893353332276691,1.8798775124311127,1.301799925693974,-2.1987452205680382,1.9440821539168196,-2.7290947744116534,4.120487522860438,1.7587887481397912,-2.177682323441565
AACGTGTGAAAGCA-1,-0.9423989870468708,0.6699014065189626,-0.628092065283829,3.1586288899183588,-0.18124411429312234,-0.03832929311391986,0.015803525236716576,0.27780228602760965,-0.1501715839143155,-0.0908639387824304,-0.5292753044734084,-0.020271140825039252,-0.10710754927182867,-0.31243762160392863,-1.2105440310112725,0.6108727024805776,0.30692733351637697,-0.46107645882298054,-0.5024690947513111,-0.193225685157149,-0.9239315461018753,-0.45959937253564176,-0.7424328382706338,0.6793401717816393,0.6749705530129126,-1.3132809884294854,-0.49877318770778684,0.6431124135520025,1.2553198957050609,-0.16998576137148919,-0.14781864213057855,-0.5815516450769482,0.7520562668492156,0.19005152797242086,0.08096835516059911,0.3961402925419263,-0.0174280798117053,-0.6195484469327383,-1.1436557379105738,0.8331990968876287,0.03380370976039911,0.5465529229648517,0.30747284825760113,-0.27087854009250045,-0.16973304055720598,-0.5123459118382204,0.047756684033883445,0.4276501807213296,0.6255735173556614,0.3087236728583633
AACGTGTGGCGGAA-1,-1.1234632196474263,1.322911381159271,-7.2157247758122,-1.7542951682160557,0.0791714615949149,0.1649914738276737,0.09519602958896191,-0.11112027597728347,0.200701520017811,0.18860361209501564,0.07103486690344446,0.05851578571282623,-0.6551537051641267,0.47423874178015574,-0.4457940201110587,0.4672184935445931,0.28355164422078427,0.07138163443956042,-0.21004833453930727,0.15383717167704328,0.7251708210409887,-0.5002915940371846,1.4694759405710591,-0.8391692915671957,0.6235314627485209,-0.12823650666215414,0.14473512706593838,-0.05222086349359695,-0.38505623189420646,0.0644479102595919,0.4965790008408771,-1.2551192221642753,2.0516968240891296,1.244372413710567,-0.5019714231783087,-0.3581725497056036,-1.0960556534153547,-0.025817994997799465,0.34498110070915144,-0.001746720960585535,1.2866346530037762,-0.1352734501214555,-0.04426787943701109,0.17489205021003174,-0.5571484135462001,-1.1442493574210468,-0.515364958747653,1.2501982216610283,0.4003448793322639,0.9873192828401898
AACGTGTGTCCAAG-1,-0.9965279372494451,0.05696501192192413,-0.6084754983557248,3.6646913669042376,0.04813773330740238,-0.09823167804171287,-0.2565670196414234,-0.01864571261475758,0.06732425654324384,0.15277733652244824,-1.104994314416118,-0.44265404672548925,-0.03787646409084702,1.1002151273175644,-1.1021030597259969,-0.1236250917163836,-0.45911472164245565,-0.4021541425476382,-0.5629481472790151,-1.3259048067567762,-0.5570320277357652,-0.4253387742501872,-0.8854635510634044,-0.5610135273958062,0.6023061054221458,-1.2701793593862134,0.33381884734859724,-0.24605315846262948,-0.5845252386098677,-0.2907709150824014,-0.6199156927999421,-1.090008878416601,-1.2975211073415391,-0.8386215457550542,0.48755016042861865,-2.147137457463954,0.5863285497095676,1.1825249500786545,-0.7892466493369035,0.08615969638514637,0.16887810236504652,-0.5399776459318281,-1.2680252035419106,-0.998248025576561,1.2363277211595358,-0.7871685128882105,0.26627033021544083,-1.5101449017037887,-0.2714488211600277,0.6000666383159495
AACGTGTGTGCTTT-1,-0.2396243740590462,0.16357582548227795,-0.1896671840491137,2.8784303839251515,0.3578029018878702,0.5779446148607101,0.04062883929345329,-0.3764880377717265,0.10920607455341028,0.3460647753266525,-0.4339303594275271,0.5328838377458467,-0.8628125302285841,1.809033676636788,0.8853723256139019,0.5250314550897793,-0.8390124194925039,0.20954324043300154,-0.016988210480434446,-0.03881112557666955,-0.3215334665253788,0.5501049560070661,-0.27670494151494374,0.6681374714322004,0.33912696036626827,-0.25117159813819573,-0.7031909677955093,-0.20793642233329326,0.4808545289555375,-0.43387896197709047,-0.3220590504193761,-0.3292904661290642,0.22305572323488296,-0.40940068642054833,-0.7145700512879054,-0.7234451164306799,-0.3702341916859284,0.7169693921879549,-1.1912543911442812,-0.9202931626904375,-0.16632436327756067,-0.2923525709014778,0.4743231894928677,-0.9126416188561686,0.13916437862850412,-0.343119575502648,-1.0539596587880433,0.9838298752607667,0.8192027362957048,-0.47808737342137775
AACTACCTTAGAGA-1,-0.5869498245502884,1.0709719186505116,-0.8730840396822115,2.4245854971876675,0.14902024933643104,0.07946497703660066,0.17324156032658605,-0.23254854106281547,0.15421873356391372,-0.06108887193639273,0.478192577876334,0.9769278564412875,-0.6300680327658998,-0.06511239872142202,-0.2339238789191191,-0.015843914877720355,0.5735194617984752,0.28950958483975303,-0.46037042232493586,0.8495343156551269,-0.2974843925316638,-0.5020500305425962,-0.25350719605587035,-0.9418229123903061,0.5675336796835524,0.5706382158802894,0.44308804064482576,2.3272352338165927,-0.04493898408103755,1.1979379842549716,1.2271976817959545,0.03803780197038628,-0.1281192813020246,-0.07137434351920598,-0.20288366920399808,0.5956723374472378,-1.628134534055587,1.0375417254391868,-0.2277629620323034,-0.6981226450314211,0.4960998291067765,-1.220155991156447,0.2282688409227133,-1.716894176528715,0.7956537807568994,0.05109890112303415,-0.2853277092454147,0.1140123114577688,1.0106099444844328,0.5173530915803137
AACTCACTCAAGCT-1,-0.3514086683299645,-6.43898836749906,2.9671249224238707,-1.5102243415017602,0.035083753887238715,-0.39495561781226374,0.0036598845611205584,0.03572548998361289,0.45225078336717334,0.01547239898016061,0.2742152243760975,-0.7233845973565325,0.229411494508029,-0.5290335812288279,-1.0320272358888423,-0.6283417303513674,0.41411710438955224,-0.31285694546594245,-1.1047435720481193,-1.1817678420237507,1.3159130820857547,-1.3294049011718103,0.19365171136574244,0.20531169611825859,0.7582167929824646,-0.28824650302385557,0.1673215164867324,-0.7219589548963202,-0.34131531984459174,-0.617365584880432,-0.16493353301316746,-0.373627731086062,-1.1979363890453203,0.26729921702404,-0.1214319180138079,-0.5877916115572089,-0.06134987479133586,-0.16666567169056706,0.11793026107987728,-0.424140247409329,-0.5269166477512424,0.9541424343845335,-0.23271391248400047,-0.03830787075463199,-0.23589768620284612,0.28053464670794026,-0.022887856106664092,-0.6523167739821033,-0.639069971774055,0.028936098691083094
AACTCACTTGGAGG-1,1.2857216075893247,-7.099397803675351,2.1100892374881877,-1.5932456472694192,0.3215305768943487,-0.14390131486395907,-2.506334810374966,-1.6169498822296784,0.6117588110398653,-0.709257516735964,0.2827554703468271,-2.1195616500022667,-0.9928956277763629,-0.5310065070634256,0.1021181371493064,0.7337217024998604,-0.5121073429312197,-6.149680890071693,-0.5316264139526151,0.9374415657459655,-0.05516252778516467,-2.4105577930761597,-2.7050414972490664,-0.7322584039303485,-1.52778679367242,0.5065965529174616,2.9697423845661017,0.128577888687054,0.46799000469977436,0.012407506689587351,0.1311947596343424,0.4286365297145185,-1.0066035726707752,0.4653739029667027,0.05521203926994822,-0.4182232288801098,0.9191316883217808,-2.7431090712153274,-0.23855152922191164,1.3458823670282434,-0.552521380703261,0.2605667910425753,1.4825892380648322,-0.05531870316466797,1.020044353177574,-2.793448476579265,-1.0743633603189593,-0.8222196600521929,-0.7943808182929064,0.098822941159914
AACTCGGAAAGTGA-1,-1.1654736556030925,3.865960044913785,2.531680416415707,1.622469106628621,-0.41423380078314914,0.43857267958158136,-0.015348266608282729,0.10563802952214695,0.609422333283378,0.23527783394577995,1.4767567918556312,-1.2404074498433957,2.864407603246634,-1.598091205210749,1.5943831353479216,-1.1306780190480772,-0.9592219922938225,-1.2653720434748599,-0.5165095635757047,1.6885629749369424,2.427760310067476,-0.3649100095518774,-1.210969553777617,0.2517798231857428,-2.022261499374315,-1.067794927553191,0.5374457304639858,0.9304152341937847,-0.46090215325266887,2.4525102145097875,1.5596814014602434,-1.198329881344223,1.073076336657083,1.1482579100502024,2.4076002292147045,-0.5593988448792924,-1.825857810333654,0.8791195025269616,0.4870930565724493,0.08362890601621326,-0.020360510383903574,-0.79998679498738,0.5076125761878325,0.07642732678300707,1.2307707138327129,0.7007000512322921,-1.033174704080877,1.0729646407858435,1.6641765529656956,2.02914747907926
AACTCGGAAGGTCT-1,-0.6143396093013888,-6.152370856751919,2.276467521240983,-1.0485756954387908,-0.09152752617963303,-0.27405552994884713,0.23058867475340666,0.03278981841554277,0.22551946879085455,0.06533511375661574,0.5183584785413743,-0.1939360989845394,0.5980480626808276,-1.1870115191945132,-0.22630845295121488,-0.3516670928894093,0.31147687869160334,0.16289022337790213,0.21990336395833102,0.028228526508513513,-0.24347884347950188,-1.093749658625597,0.04235036519154517,-0.35209338514422883,0.5995312882058385,0.2081624051729079,0.14462110267652922,0.6998716752741846,-0.35068167757907953,-0.18721326785100234,-0.35167996959885156,-0.7480309838443127,-0.3382586571756071,0.3289836944842089,0.7204625474673889,1.2663913087811247,-0.8236276149957465,0.09762707606361937,-0.06525051710366123,-0.9723603471649367,-0.33884241207626997,0.71504516052557,-0.45154722168286254,0.06520278713869647,-0.6143378368153501,-0.11423269443396272,-1.195292769687484,0.05048393936324724,-0.6371683991800504,0.8655209506818785
AACTCTTGCAGGAG-1,-0.9624765556769546,1.1109504481299242,-0.9129304991447952,2.8664724297312736,0.1864566021197436,-0.21544004929458005,-0.018096368594396728,-0.09187345516420063,-0.0348923139344894,0.2037107045947209,-0.17026284949852216,0.06006058000492827,-0.17184469861780494,0.9170205353863516,1.0850516794277172,0.13739170789955465,-0.8132134176155416,1.0468546302573902,-0.04712525961902181,-0.17670765999003835,-1.1910869095091425,0.26066153694573013,-0.7202243002567558,0.1499372071294905,-0.8385664145527089,2.9891587312756958,0.2105896600010366,-0.8684088894728113,-0.583183746262931,-0.5600155310063303,0.5969854320140808,-0.5004124101965214,-0.5127734741107919,0.8766605014717757,0.05054459760505908,0.0787841521981353,-1.628862832386342,0.525966746307462,0.4641074157056053,-0.24471720230581523,0.23260699631306533,-1.987394628085406,1.1666277044167987,0.1776448931403941,-0.7614784153700013,-0.18077338384170122,2.053224797471416,1.6077863473752245,-1.08847525335459,-0.01213495269847148
AACTGTCTCCCTTG-1,-0.30480821492644394,-8.071470162300528,3.034901194163329,-2.7859593942753467,0.10059959768088061,-0.43725337511935936,-0.9807152609091776,-0.07200312535098541,0.14538162531014187,-0.2237815577653666,0.14559043323140597,-1.5702856804348713,0.46081994113914504,-0.5487324453452098,-0.4236546183242333,-0.4730967253464159,0.2991870829658781,0.19186475988411705,0.1261575968480061,-0.6204204733746181,-0.8224767919130112,-0.7182895324816674,-0.6885050360493918,-0.16620418497071898,0.5177235575643075,0.04275873737627567,-0.19979625030824663,0.20087550759380632,0.598723832036172,-0.403890635831744,0.43078102891243353,0.3167225384596659,0.007269194642576134,0.10049683384558905,-0.7597016264879246,0.8573988281845508,0.86796184703282,0.184215284022208,-1.0267055926079145,-0.4416726568959203,-0.6464760444863555,0.239043949565033,-0.10528837331079285,0.5714831541239093,-0.9363535129989146,-0.06037498413765982,0.10435317059747896,0.2811112802615748,-0.7615702990165238,-1.1160351729379046
AACTTGCTACGCTA-1,-0.03678631267061616,1.53497539499448,-7.763802638832625,-2.3879821900184,-1.5328577871444626,0.39452032865700615,0.40122005219259343,-0.3431661485064413,-0.5873578376027437,0.7752714450376572,1.7666852813121332,2.265544457901962,-0.0303053854185661,-0.5639219693113161,-1.1715500047926575,-0.021422759436341393,0.4132711190837114,2.234171492553694,-1.024104165993355,2.6934484561235292,-0.06416358565187902,-2.3836090169407176,0.05031417180377487,-1.5924927246387484,-0.4591200509891315,0.12455559141639194,0.9425048464508973,1.061780239420635,-0.5618319969630599,2.2682288435170994,-0.8361527098387617,-2.1626588036822643,1.346895317835763,3.2074567608329865,-1.4539661071846042,-2.276378864195087,0.76160052015712,-0.22473730512749146,-0.7105339374456555,1.4537449135158398,0.3786824051953893,-0.8935588451290568,2.4128534640119192,0.19420771241149676,-0.9076695541088484,-0.951880645653201,-2.0172011233997695,-0.4306485585735609,1.650957269107538,-0.890628833675553
AACTTGCTGGGACA-1,-0.7594430591878214,1.319533106640081,-0.3853725518226472,2.6628241466469236,0.21955261400144171,0.31620366449430687,-0.22627349976294425,0.1720935491652149,-0.3345831348510123,-0.435291505309745,-1.4261509407781652,-0.14942592559163442,-1.3273626620159635,0.7478966589948584,0.041294626593922135,0.5237361549410253,-0.8534793006420396,-0.6567505065373171,-0.22842937142007513,-0.6607678766087755,-0.9104010382741154,0.31597579439184487,-0.09824012278443253,-0.3032941715319033,0.5010244710121652,-0.7159045752318854,-0.0042858637014213385,0.47342783088638185,1.0729474226736309,-0.20742517409351685,-1.1047539665284765,-0.5411948740330983,-0.7811741068825256,0.21246016328916176,-0.1849012315421819,-0.2156083520210974,0.027092743747455947,0.6409861440488593,-0.629811396679644,-0.36894631515839893,-0.20697895971182967,-0.04027967918419909,0.15383513920344877,0.2621205893876845,0.5815599237781536,-0.8181634726514453,-0.6688781385772291,0.04512440121337093,-0.0004300753414318015,0.30401495292007646
AAGAACGAGTGTTG-1,-0.13456403876652046,1.1238922269838278,-1.2822282991424996,4.042176011413179,0.28296441938087125,-0.2673132646091301,-0.1027272974420044,-0.2689120044841934,0.16076296626272438,-1.5961781196564795,-0.19892816622482146,0.5270719465458329,0.9102518436888332,0.3515917723882832,0.3453939185133205,0.08341339675384235,-0.2101208352933261,-0.25549019589493815,-0.2085888339439915,0.5923377999022303,-1.9571871919101582,-0.4539346309214023,0.707244158759051,1.1225493684212013,-0.919878432462671,-0.05386924461711462,-0.7087736290340385,-0.5731156450234443,-1.5892121312560363,-1.7744732648593717,2.0413345443031123,2.9949337462161676,0.7310685530989827,1.6718125132698,0.42431849187041254,-0.5032860068878677,-0.5559089667774293,-0.10205174480490081,-2.4833527970318747,0.7336771707923233,0.18176308306598332,4.54257677894586,0.941054171558174,-4.4994444831843925,-0.8790268691960854,-0.5561492212118204,2.799077931795361,1.9761473714286084,1.6332245415302908,1.1306543328175782
AAGAAGACGTAGGG-1,-1.199332888877807,1.8790148276857468,-12.803070286281372,-8.595942266599796,0.20788397042606638,0.6801184020059793,1.1136365276451234,-0.003214468487323846,0.43578366804993185,0.4661381349548639,-0.49723992043567866,-1.024400867076919,1.3981246179551088,1.2571712001514692,1.770397613436028,-3.712078373430903,1.9973292109332343,2.5400687254166217,3.39536920505212,-2.4849973074175935,-9.225024105992674,3.3215002620401792,4.938355119439059,-2.065311999618893,-6.651487930629614,5.141160568764495,-2.6367334866984313,12.096358055338209,-3.43928693676453,-5.965014302250076,-5.280318211089177,4.030596989816501,-3.657373465425782,3.3969798831343754,2.4574259469968323,12.905799018858433,-1.7487210062799299,0.37469140248918253,13.437118543709293,-0.780736711256472,0.1920876103205139,-15.640245266411625,4.833724434131721,-15.128343994148953,6.522627303990282,5.706491448742952,-12.136923858648805,-11.415741286474022,-4.652335507199202,8.562726406338456
AAGACAGAAGTCTG-1,-1.0891147259327618,2.628848668437909,-11.052489141213108,-7.347377619267407,-0.15393970222447134,1.0553873532764118,-0.3890693503213012,-1.0784819555049636,-0.5414296263121401,-1.6579593600279607,0.5776468189387622,1.3774636533295574,1.080969624084221,1.5394050044272767,1.0598415262018883,1.2017071864537596,1.7142311433349264,0.1822605456248676,-0.23727588083701573,2.639394022295754,-3.108043547533896,3.740319234192072,-2.0009385208100356,4.204118106023817,0.4870493396915781,0.06854285149901951,-0.18542681719666287,-3.0505900345210657,3.327028451025943,-1.8991051082039698,3.358081457851379,0.481365661841692,-3.6166683856496444,2.0061308449577506,-5.330779902798454,-0.6489484544421201,3.1151862142045292,2.170106503751886,-9.999753725389544,-6.903564549342244,1.360416166796973,2.7931525241298027,-0.5255429839497651,-3.8704243736055366,3.300763917047343,0.19032779899209776,3.1411887033221717,-9.576500945482652,1.3222103559489893,-4.437293634834051
AAGACAGAGGATCT-1,-0.9117843941620556,0.22407903327816897,-1.268962333517151,2.69012899213743,0.051532753003331114,0.04522817487355475,-0.09352067533736433,0.002194054681387402,0.028845031863387355,0.25366239341398367,-0.7495818206309612,-0.6291537585004638,0.10372588304561112,0.5229843401419967,-0.058889822514376605,0.12607739657004263,0.5156339972512799,0.6341505283084685,0.032223541104890424,-0.5297388618577573,-1.8105982233441054,-0.020470669944245054,-0.3690968756723656,0.8265786940836902,-0.08578028796183328,0.17498435099488113,-0.9821730779539173,-0.4825453260576441,-1.3148778833865724,0.09469014871400688,1.1938695223856732,0.47273730959052734,0.39392847832232836,-0.3339253343285748,0.9563900283326277,0.4886439784848297,-0.5899116414257786,-0.6861887312739589,-0.4410744580202908,-0.11923250442071978,-0.04433341932908859,-0.7504713451406936,-0.0947580259608546,0.17742391735594484,0.6478520667447758,-0.598717678726604,0.04296304608145396,-1.0597404314126004,-1.4050665371916133,0.17117676187355083
AAGACAGATTACCT-1,0.4124928734634279,-8.083534177127586,3.5711066526114332,-1.7986437381263292,0.2853902840246367,0.5223940481314048,-0.23413033325194788,-0.4118545243248386,-0.35286036924669484,0.0046988462238269635,-0.15599050475719178,-0.5531153276406215,-0.14694805785488507,0.06432498834388256,0.5199853858363341,-1.0298554620555636,0.5141559832241837,-1.4889087189457562,0.689919569884499,0.3296502761918017,-0.7879532698362579,-0.2802562034904323,-0.4380177889436862,-0.24087139334666458,-0.12119926903228001,-0.2079278460036763,0.9748598086437781,-0.7201384933698342,0.31056149305599184,-0.19744159198348646,-0.5916743933701237,0.6305422921149406,-0.1983073277857328,-0.9303330637545654,0.4739613642614352,-1.0299858735922256,0.3551572311803086,-2.201535398391772,-0.00953746459632926,1.0953486908737724,0.3021125212023329,1.3229793761480155,-0.2939675759778496,-0.06315305524071996,-0.20842128849769437,-1.327951779207928,0.08451080765066502,-1.6862908422194678,0.34869446311370556,-0.2892004783661804
AAGAGATGGGTAGG-1,-1.1151741235137196,2.1532422623540866,-9.602323644997867,-3.7749632325017224,0.20416468433322757,0.3069223110490452,0.0275596747857011,-0.7920118554715946,0.6992801769674217,-0.08712915938930549,3.2029630375175104,-2.2555789773796002,-0.840181364869765,-1.7058296436789666,3.2721690665567307,-1.6100033275993937,-1.3273225548077434,3.8894754232275837,-1.8674740992153334,2.21171572316359,-1.0931786770728222,1.3437763860483587,-5.690247853955176,-7.464457039952926,5.3464488043054885,-1.4418662226092023,-3.6745579472188634,3.719778205086292,-5.62169285154139,3.635276617785812,6.019959532328599,0.6396081679945984,3.6385731527035796,3.6284212241460683,0.25345602714506477,-4.73358825160585,0.6333726294919091,-2.387903351654378,-2.191935287801249,4.476599928426855,-0.34572527384971896,-7.220409631333099,5.203543781494714,-5.153659212844247,-1.1073390168473372,1.3016646902596631,0.6311341115011928,3.971226071684547,3.917249730395775,1.7192440899722583
AAGATGGAAAACAG-1,-0.08185675775816711,1.749612503098776,-7.235178168901014,-3.4764424483826417,0.9927919692708254,0.45739540936848944,0.8820685891481945,3.2129056929260593,0.3223621709741433,-1.5217713111952755,-3.968569861443674,5.921313456372912,2.917221061123102,4.245261640068996,3.544486378427916,-8.533031776944274,0.8103516357861968,-1.1516447333166249,4.22375871708096,0.5565806549349921,-2.8802347922846385,-1.5438109369847353,0.6267081173010661,-3.350401634720608,1.0848216118633158,-6.405700355332925,3.973516309748452,-2.45730492955043,0.325408287046564,-4.997997115963881,-5.121455091299028,-1.038394704407451,-0.9197315431688791,-0.7043311466840131,1.0475613313212317,-1.1855554734800648,3.7710666272645814,-0.12579270387199665,1.2269175683493139,0.40682749165448784,3.2239110225885437,-1.6007756236757134,2.0832485987440514,-1.8019253457156563,3.644408247922415,5.566909544550734,1.377735112132302,-1.9790098983729483,-0.749736903083329,0.11676247937948525
AAGATGGAGAACTC-1,-0.5183951046524803,-8.598436099300862,2.4513118566753773,-2.4617084502822726,-0.1649048149864226,-0.21125977297236165,0.6036946358174665,0.31147838082979395,0.284330442156331,-0.31543069395765166,0.13910879775610055,-1.2642707307303351,1.613711209310903,-1.515923034676706,1.0107667289028626,-0.9810984476747229,-0.3698370625691248,-0.4907777369428136,0.8871260624353433,-1.157299985544725,-0.8480361820144348,-0.785404894532154,0.3836899733662652,-0.6596618337475119,0.3290680033352514,-0.12983649740306677,-0.15835163597798077,-0.4411227922185235,1.6041380683613995,0.08967286082889833,-0.2717993336131874,0.5701172557606345,0.3957840042542561,-0.061172170155727595,0.5382934970221664,-0.36230432356407055,-1.4609836746586031,1.2574672789301862,-0.6686709999632157,0.5370814396389396,0.4174984687004629,-1.7755269858631924,1.0133879729713775,1.1464399709927693,-0.016841356693999863,-1.7111077950891203,-0.5430201870983313,0.050799614703772505,0.19351648201907473,0.4344375120382616
AAGATGGAGATAAG-1,0.24766767227209646,-6.805048564773994,2.26557495382904,-2.5697973365261877,0.20983608887068778,0.453132016229579,-0.06614469175143267,-0.6840002670582459,-0.9403159572247338,-1.3208258657975682,0.1173370498414405,-0.0023477759994080527,0.006366575830515336,0.7379921231893519,-0.8645303973841758,-2.1809541940162815,0.012838437861444119,0.0673480916524899,-0.09004735191432656,-1.2812312880492969,0.27076087025906137,0.18596818498921908,-0.06429815571869432,0.41465194141886363,0.702546192187249,-1.0291695856833174,0.714262943239098,-0.8714463682433595,-0.5883041454744758,-0.4264650650315018,-0.5124435114455291,0.8125254760337961,-1.2071544250248096,0.799668217314473,-0.2616988576005991,0.2089798841492346,-0.38073447917871805,0.25472450890134757,1.2594247139713317,1.1664327936810337,0.17448559013057846,-0.3952535686009856,-0.8029031167814142,-0.938909361143029,-0.3662574171109064,1.0448898198609664,0.3984297511741587,-0.23166122426564187,-0.43064453667755637,0.9366166831246091
